svm_type c_svc
kernel_type linear
nr_class 4
total_sv 1109
rho -0.999908 -0.999766 -0.999735 -0.999805 -0.99974 -0.216789
label 1 2 3 4
nr_sv 452 330 176 151
SV
0 0.005992796636546538 0 21:1 60:1 101:1 107:1 166:1 208:3 243:1 331:2 453:1 577:1 654:1 661:1 677:7 688:1 692:1 732:1 761:2 852:1 867:1 995:1 1036:1 1076:1 1109:1 1123:1 1145:1 1188:11 1283:2 1287:2 1353:1 1429:1 1469:3 1477:1 1545:1 1558:2 1581:1 1583:5 1624:1 1643:2 1672:2 1690:2 1736:1 1785:1 1890:2 1891:1 1984:1 2146:2 2164:1 2193:1 2276:1 2297:1 2328:6 2395:2 2409:1 2430:1 2462:1 2596:1 2620:1 2625:2 2733:1 2824:1 2839:1 2863:1 2868:1 2949:1 2951:8 2974:1 2980:1 3087:1 3098:1 3178:2 3243:2 3264:2 3279:1 3435:1 3437:1 3461:1 3472:4 3537:1 3716:1 3771:2 3773:2 3782:1 3848:1 3855:1 3950:3 3993:1 4006:1 4040:1 4164:2 4181:2 4254:1 4272:1 4430:2 4495:4 4564:1 4570:2 4624:2 4683:1 4707:2 4777:1 4853:2 4917:2 4977:1 4993:1 5108:1 5109:1 5110:1 5223:1 5385:1 5435:1 5436:3 5469:1 5608:1 5618:1 5795:1 5853:1 5895:2 5902:1 5935:8 6071:2 6086:3 6158:1 6171:1 6239:1 6249:1 6337:1 6355:2 6361:1 6430:1 6538:2 6543:2 6585:1 6593:1 6699:5 6704:1 6730:2 6756:1 6786:1 6873:1 6905:3 7000:1 7055:2 7087:1 7219:1 7305:1 7374:1 7385:2 7447:1 7487:2 7502:1 7587:1 7607:1 7625:1 7667:1 7762:1 7767:1 
0 0 0.04614184283344631 73:1 628:1 707:1 865:1 919:1 1133:1 1188:1 1890:3 2115:2 2146:2 2183:1 2613:1 2750:1 2870:1 3228:1 3762:1 4065:1 4524:1 5166:1 5314:1 5731:1 6252:2 6339:1 
0.00798638575973052 0.0007773980248726181 0.007266799352940838 102:1 212:1 595:2 628:3 1036:1 1188:1 1514:1 1533:1 1581:1 1952:2 2076:1 2110:1 2270:2 2613:1 2697:3 2700:2 3420:1 3643:1 3716:2 3724:1 3860:1 3942:1 4032:1 4188:2 4230:1 4255:1 4321:1 4322:4 4430:1 4473:2 4513:1 4525:2 4686:1 4839:2 4863:3 5479:1 5853:1 6041:1 6158:5 6591:1 6925:1 7104:1 7138:1 7148:1 7373:1 7640:1 
0.01963741495826941 0 0 300:1 524:2 599:1 661:1 723:3 750:1 1011:3 1036:1 1145:1 1163:1 1188:4 1307:1 1353:1 1394:1 1451:1 1479:1 1558:1 1583:1 1690:2 1785:1 1870:1 2058:3 2079:1 2251:1 2328:1 2620:1 2709:1 2748:1 2767:1 3040:3 3079:1 3228:1 3273:1 3275:1 3299:1 3388:1 3406:2 3415:1 3503:1 3617:1 3716:4 3771:1 3782:1 3827:3 4181:1 4304:1 4364:1 4367:1 4430:1 4481:1 4524:1 4564:1 4601:1 4629:2 4917:1 5093:1 5365:1 5464:1 5571:1 5645:1 5804:1 5825:1 5935:1 6215:2 6380:1 6594:1 6699:1 6809:1 6856:1 6873:1 6891:3 6909:1 6945:1 6998:1 7640:1 7738:1 7753:2 
0.003412830550202436 0 0 111:3 152:1 198:1 218:1 430:3 518:1 599:2 991:1 1141:1 1145:3 1188:4 1198:1 1289:3 1434:2 1473:1 1521:1 1545:1 1581:1 1747:1 1804:3 2000:1 2054:1 2079:2 2130:2 2194:1 2290:1 2368:1 2783:1 2805:1 2876:1 3033:1 3075:1 3098:1 3421:1 3526:1 3537:1 3647:1 3716:4 3762:3 3771:1 3883:1 3891:3 3919:1 4164:2 4220:1 4230:2 4302:3 4430:3 4524:1 4749:1 4782:1 4917:1 5202:1 5414:1 5513:1 5895:1 6103:1 6108:1 6161:5 6494:1 6840:1 6859:1 6916:1 7122:1 7225:1 7245:1 7347:1 7553:2 7628:1 
0.0357349955264281 0 0.05762541673742121 617:1 1785:1 2602:1 3103:3 3299:1 3456:2 3964:1 4706:3 6639:1 7325:2 
0.004880988496688292 0 0 46:1 203:1 285:1 405:1 594:1 761:3 818:1 1036:1 1145:2 1188:8 1307:1 1583:1 1690:1 1785:1 1868:1 2079:1 2259:2 2328:1 2512:1 2709:1 2839:1 3098:1 3716:3 3822:1 3848:1 3959:1 4164:1 4399:1 4430:2 4749:1 4853:1 4875:2 4917:1 5045:1 5110:1 5198:1 5660:1 5684:1 5795:2 5845:1 5853:1 5876:1 5895:1 5935:2 6066:1 6585:1 6592:1 6679:1 6699:1 6710:1 6837:1 6840:1 6865:1 7000:2 7048:1 7158:2 7287:2 7347:1 7753:2 
0.002745529300127824 0 0 198:2 211:1 283:1 323:1 746:1 842:1 1036:1 1067:1 1090:1 1131:1 1145:1 1188:4 1307:1 1316:2 1345:1 1469:3 1503:1 1554:1 1563:1 1667:1 1680:3 1756:1 1816:1 1927:1 2045:1 2190:1 2416:2 2446:1 2547:1 2576:1 2652:1 2670:1 2677:1 2697:1 2709:1 2783:1 2876:1 2888:1 3033:1 3076:2 3105:1 3228:1 3259:1 3275:1 3301:1 3421:1 3562:1 3666:1 3716:1 3795:1 3981:1 4164:1 4200:2 4364:1 4410:1 4430:2 4513:2 4592:1 4805:1 4839:1 4853:1 4917:1 4972:1 5085:1 5092:1 5104:1 5160:1 5239:1 5313:1 5570:1 5946:1 6028:1 6432:1 6538:1 6606:1 6742:1 6800:2 6837:1 6873:3 6919:1 6965:3 6967:3 6982:2 7003:2 7106:1 7145:1 7148:1 7203:1 7366:5 7531:1 7620:2 7640:2 7648:1 7738:1 
0 0 0.03720917897429531 74:1 489:1 665:1 985:1 1013:1 1117:1 1166:1 1287:1 1387:1 1416:1 1622:1 1643:1 1777:1 1898:1 1956:1 2106:1 2192:1 2479:1 2549:2 2676:1 2682:1 2917:1 2927:1 3266:2 3762:4 3841:1 4035:1 4200:1 4359:1 4495:1 4653:1 4875:2 4888:2 5248:1 5253:1 5994:1 6384:1 6453:1 6491:1 6968:1 6975:1 7096:2 7518:1 
0 0.004822816045144058 0 212:1 254:1 730:1 852:1 867:1 1188:2 1198:1 1206:1 1246:1 1310:1 1524:1 1690:1 1837:5 1847:1 1890:1 2158:1 2251:1 2328:1 2638:1 2640:2 2690:3 2796:1 2839:1 2908:1 2991:1 3086:1 3087:1 3253:1 3299:1 3308:1 3437:1 3611:1 3650:1 3715:1 3716:2 3762:1 3771:1 3889:1 3908:1 3981:2 4284:1 4385:1 4782:1 4813:1 4917:1 5265:2 5307:1 5687:1 5948:1 6083:1 6150:2 6162:1 6815:1 7487:1 7624:2 7640:1 
0.0001531398281569313 0 0 26:1 65:1 208:1 212:4 388:2 452:1 478:1 524:2 549:2 558:1 720:1 818:1 846:1 898:1 968:1 1036:1 1133:1 1145:2 1163:1 1188:4 1239:1 1252:2 1307:1 1312:1 1395:1 1424:1 1493:1 1514:1 1581:1 1622:1 1765:1 1796:1 2079:2 2138:1 2146:1 2347:2 2375:1 2384:1 2522:1 2595:1 2612:1 2716:1 2783:1 2803:2 2819:1 2888:1 2947:1 2980:1 3076:1 3147:1 3342:2 3481:1 3537:1 3543:1 3716:4 3762:1 3771:1 3772:1 3952:1 3971:1 3996:2 4002:1 4008:1 4124:1 4164:2 4230:1 4246:2 4370:1 4430:2 4477:2 4524:1 4553:1 4586:1 4683:1 4849:1 4917:2 4959:1 4966:1 5016:1 5045:1 5092:1 5253:1 5266:1 5319:1 5330:1 5381:1 5387:1 5421:1 5455:1 5634:2 5702:1 5748:1 5850:1 5853:1 5981:1 6024:1 6027:1 6086:1 6162:2 6227:1 6239:1 6313:1 6399:1 6430:4 6453:1 6603:2 6613:1 6781:1 6840:1 6905:1 6968:1 7134:5 7196:1 7322:1 7456:3 7499:1 7540:1 7607:1 7609:1 7655:1 7717:1 7745:2 7753:1 
0.01819693741782207 0 0 56:1 73:1 242:1 558:1 668:2 705:1 867:3 889:1 898:1 1036:3 1041:2 1044:1 1145:2 1188:4 1493:1 1643:1 1785:1 1847:1 1873:1 1877:1 1890:2 2113:1 2297:1 2347:1 2348:1 2505:2 2562:1 2596:1 2618:1 2640:1 2676:1 2819:1 2980:1 3151:1 3472:1 3548:4 3716:2 3762:2 3771:2 3844:1 3889:1 4230:1 4251:1 4430:3 4432:1 4521:1 4524:1 4739:1 4824:1 4926:1 5049:2 5131:1 5449:1 5696:1 5812:1 5895:1 6024:1 6279:1 6362:1 6430:2 6788:1 6815:1 6837:1 6873:1 6992:1 7148:2 7211:1 7275:1 7628:1 7640:1 7651:1 7660:2 
0.0226111826620721 0 0 309:2 903:1 919:1 1109:1 1145:2 1188:1 1672:2 1785:1 2040:1 2146:1 2446:1 2514:1 2676:1 2686:2 2839:4 2980:1 3678:1 3716:1 3724:1 3762:1 3771:1 3952:1 4255:3 4430:1 4666:1 4917:1 4965:1 5107:1 5552:1 5776:1 5895:1 6150:1 6840:1 7347:1 7687:1 
0 0 0.03316795434560472 7:1 36:1 212:1 292:1 328:1 375:1 407:1 738:1 889:1 1013:1 1067:1 1131:1 1163:1 1246:1 1434:1 1437:1 1493:1 1514:1 1605:1 1783:1 1785:1 1837:2 1890:2 1968:1 2079:1 2115:1 2158:1 2876:1 3039:1 3354:1 3437:1 3611:3 3650:1 3762:4 3771:3 4035:2 4164:2 4230:1 4518:1 4523:2 4524:1 4888:1 5012:1 5248:1 5265:2 5528:1 5625:1 5702:1 5825:1 5945:1 6108:1 6211:1 6435:1 6441:2 6452:1 6679:1 6815:1 7252:1 7296:1 7553:1 7640:1 7738:1 
0 0.003811759935074668 0 7:1 208:1 212:2 247:3 284:1 405:1 430:3 464:1 504:2 549:1 594:1 599:2 617:1 629:1 640:1 741:1 755:1 774:1 806:1 890:1 898:1 997:1 1011:1 1030:2 1145:1 1188:5 1189:1 1287:1 1307:1 1365:1 1433:3 1437:1 1509:5 1545:6 1552:1 1583:1 1690:1 1785:1 1827:2 1884:1 1890:1 1953:1 1964:1 2022:1 2054:1 2079:7 2115:3 2136:1 2164:1 2241:1 2328:1 2347:1 2395:2 2444:1 2451:1 2454:1 2512:2 2514:1 2547:3 2599:1 2819:1 2908:1 2920:1 2980:1 3098:1 3143:1 3342:5 3354:1 3421:2 3544:1 3762:3 3848:1 3864:6 3935:1 3951:1 3964:2 3981:3 4006:2 4082:1 4085:8 4089:1 4111:1 4164:1 4284:1 4446:1 4463:2 4474:1 4487:1 4509:1 4513:1 4521:3 4524:1 4601:2 4654:1 4683:1 4729:1 4752:1 4854:1 4874:1 4887:1 4891:1 4917:2 4926:1 4966:1 5092:1 5107:1 5177:1 5207:1 5224:1 5237:1 5253:1 5254:1 5438:1 5600:2 5696:1 5702:1 5812:4 5868:1 5939:6 5941:1 5990:1 6086:1 6175:2 6186:2 6228:1 6247:1 6298:1 6340:1 6380:1 6430:1 6449:1 6514:1 6540:1 6626:1 6637:1 6676:1 6679:2 6710:1 6772:2 6873:1 6905:1 6908:2 7003:1 7015:1 7028:3 7052:1 7124:1 7153:1 7168:1 7211:1 7252:2 7363:1 7385:2 7437:1 7487:1 7542:1 7611:2 7627:1 7640:2 7667:1 7694:1 7738:1 
0.01101685151133833 0 0 107:1 198:2 208:1 212:1 242:1 365:1 388:1 524:2 558:1 654:1 772:2 846:1 898:1 919:1 991:2 1036:4 1106:2 1133:1 1145:2 1188:5 1252:2 1307:2 1690:1 1785:1 1796:1 1990:3 2079:1 2146:1 2290:1 2347:2 2446:1 2783:3 2803:1 2883:2 3019:1 3087:2 3147:4 3280:1 3342:2 3492:1 3518:1 3537:2 3716:8 3771:1 3772:1 3863:2 3902:1 4006:1 4065:4 4066:1 4130:3 4164:1 4261:1 4420:1 4430:4 4477:2 4513:1 4575:1 4586:1 4694:1 4737:1 4917:2 4965:1 5090:1 5107:1 5109:1 5256:1 5396:1 5463:1 5804:1 5853:1 5895:1 5941:1 6013:1 6024:1 6086:1 6103:1 6109:2 6158:1 6162:1 6430:2 6510:3 6603:1 6840:2 6856:1 6859:2 6873:3 7134:1 7456:5 7487:1 7553:2 7640:1 7745:2 7753:1 
0 0.006060054594215282 0 65:1 72:3 212:2 231:2 263:2 300:1 331:1 342:1 504:1 577:3 661:1 692:2 772:1 893:1 919:1 948:1 1036:1 1109:1 1145:4 1188:2 1287:1 1301:1 1434:1 1558:1 1690:5 2079:1 2193:1 2458:1 2709:1 2791:1 2888:1 2958:2 3087:2 3282:1 3321:1 3650:2 3716:2 3771:1 3795:4 4065:1 4164:2 4230:2 4320:1 4430:3 4513:1 4521:3 4762:1 4845:1 4863:1 5104:1 5109:1 5129:1 5253:1 5845:3 5852:1 5895:2 6090:1 6648:1 6683:1 6710:1 6786:1 6837:1 6840:1 6859:1 6944:1 6953:1 7347:2 7385:1 7431:1 7640:1 7660:1 7738:2 
0 0.01828360598232993 0 309:2 448:1 504:1 1145:2 1188:1 1434:1 1524:1 1558:1 1583:1 2056:1 2164:3 2530:4 2686:1 2824:1 2839:1 3716:1 4164:1 4352:2 4430:1 4524:1 5941:1 6263:1 7640:1 
0.02256810378796555 0 0 387:2 991:1 1109:1 1145:1 1188:2 1198:1 1307:1 1357:1 1387:2 1434:1 1517:1 1588:1 1801:1 1847:1 2097:2 2146:1 2613:1 3537:1 3716:2 3771:1 4293:1 4430:2 5852:1 6059:1 6430:1 6516:1 6690:1 6840:1 7227:1 7308:1 7576:1 
0 0.03537725046788196 0 594:1 1605:1 1775:2 3174:1 3420:1 3421:1 3762:2 3936:1 3991:1 4525:1 6245:1 6680:1 7256:1 
0 0.0002194336502953687 0.01287245741540459 65:1 72:2 165:1 218:1 312:1 448:1 860:1 867:1 908:1 970:1 1036:1 1109:1 1145:1 1188:2 1370:1 1387:1 1558:1 1583:1 1690:2 1749:1 2146:1 2164:2 2824:1 2883:1 2923:1 2928:1 3716:1 3771:1 3959:1 4430:1 4966:1 5103:1 5109:1 5673:1 5696:1 5719:1 5776:1 6380:1 6430:1 6555:1 7263:1 7533:1 
0 0.02018585614998511 0 72:3 121:1 150:1 165:1 166:2 185:1 212:5 266:7 374:2 461:1 464:4 529:1 599:1 628:2 867:1 872:1 919:1 1036:2 1060:2 1145:4 1188:7 1244:1 1307:1 1353:1 1395:5 1543:1 1613:1 1680:1 1690:2 1780:1 1798:1 1831:1 1890:1 1903:1 1932:1 2079:3 2087:1 2186:1 2328:7 2374:1 2408:1 2471:2 2502:1 2565:1 2566:1 2627:4 2709:1 2905:1 2916:1 2962:1 3206:1 3380:2 3421:1 3537:1 3578:1 3762:7 3771:4 3848:1 4164:1 4200:1 4246:1 4254:1 4385:2 4405:1 4430:5 4431:1 4513:1 4518:2 4521:2 4666:2 4679:2 4749:1 4853:5 4917:1 4966:6 5113:1 5176:2 5182:1 5437:1 5464:1 5651:1 5660:1 5776:1 5804:1 5812:2 5888:1 5935:3 6024:2 6158:1 6380:6 6534:1 6555:1 6634:1 6770:1 6779:1 6831:1 6837:1 6859:2 6873:3 6968:4 7000:2 7042:1 7320:1 7695:1 
0.02174438215619694 0 0 311:1 1036:1 1145:1 1188:1 1307:1 1545:1 1623:2 3716:1 3771:1 4164:1 4430:1 4846:1 5296:1 5502:2 5895:1 6371:1 6837:1 6926:1 
0.02986700702218886 0 0 266:1 355:2 649:2 772:1 784:1 1036:2 1145:2 1188:3 1353:1 2146:1 2186:2 2709:1 2766:1 2970:1 3354:1 3378:1 3547:1 3716:2 3762:2 3771:3 4089:1 4096:1 4164:1 4386:2 4430:2 4521:1 4892:1 5107:1 5361:1 6182:1 6550:1 6840:1 7191:1 7346:1 7499:1 7628:1 7640:1 
0 0.02357234942536181 0 52:1 312:1 504:1 668:1 671:1 1188:1 1254:1 1434:1 1562:1 1583:1 1616:1 1698:1 1747:1 1847:2 1890:1 1975:1 2088:1 2102:1 2490:1 2697:1 2894:1 3182:1 3354:2 3757:1 3771:1 3836:1 3890:1 4164:1 4219:1 4331:1 4345:1 4741:1 4924:1 5016:1 5809:1 5815:1 5850:1 5944:1 6354:1 6430:1 6494:1 6975:1 7499:1 
0.0224048105061203 0 0.004193709754805612 113:1 152:1 242:1 263:2 430:1 859:1 860:1 874:1 903:1 1036:1 1161:1 1188:2 1493:1 1690:1 2088:1 2488:1 2743:1 3537:1 3716:2 3762:1 3771:1 3798:2 4302:1 4329:1 4430:3 4513:1 4524:1 4737:1 4906:1 6026:1 6051:1 6430:1 6591:4 7458:1 7640:2 
0 0.023537729952209 0 30:1 56:1 212:2 247:1 258:1 284:1 430:1 504:2 592:2 596:1 599:2 852:1 869:1 1009:1 1145:1 1188:1 1433:1 1434:1 1545:1 1616:1 1761:1 1763:1 1827:1 1959:1 2079:1 2115:2 2229:1 2347:1 2353:1 2484:1 2547:1 2709:1 2796:2 2887:1 2980:1 3342:1 3603:1 3645:3 3650:1 3762:1 3771:1 3783:1 3789:1 3864:1 3942:1 4164:3 4217:1 4405:1 4487:3 4521:2 4706:4 5045:1 5107:1 5224:1 5231:1 5313:1 5811:1 5941:1 6024:1 6086:1 6257:1 6430:1 6798:1 6837:1 7211:1 7256:2 7569:1 7614:3 7640:2 
0.0003531265200327003 0.008840897228245144 0 72:1 161:1 204:1 328:1 368:4 372:1 504:1 723:1 771:1 1036:1 1042:5 1044:2 1076:1 1109:1 1145:2 1188:3 1194:5 1287:1 1469:2 1583:4 1608:1 1680:1 1690:3 1761:4 1814:1 1844:1 2071:1 2074:1 2146:2 2167:1 2317:1 2328:4 2358:1 2395:5 2451:1 2721:1 2764:1 2867:1 2888:2 2980:1 3290:1 3531:1 3537:1 3634:1 3716:1 3762:1 3771:1 4195:1 4240:1 4261:1 4430:1 4524:1 4564:1 4917:3 4966:1 4972:1 5091:1 5387:1 5529:1 5895:2 6081:1 6164:1 6380:2 6430:1 6699:1 6781:1 6859:1 6862:1 6873:8 6884:1 6905:5 6944:1 7305:1 7597:3 
0.01329107197963934 0 0 2:3 211:1 236:1 288:1 300:1 636:1 668:2 889:1 919:1 1058:2 1097:1 1145:1 1163:1 1177:1 1202:1 1437:1 1543:1 1547:1 1690:1 1847:3 1900:1 1926:1 2022:1 2172:1 2512:1 2596:1 2638:1 2639:1 2796:1 2819:1 2836:1 2888:2 3125:1 3279:1 3305:1 3309:1 3354:1 3762:7 3771:1 4105:1 4236:1 4291:1 4463:1 4601:2 4632:1 4653:1 4782:1 4926:11 5016:1 5323:1 5414:1 5423:1 5749:1 5804:1 5850:1 6048:1 6103:3 6109:1 6245:2 6251:1 6395:1 6430:1 6815:1 6837:1 6859:1 6903:1 6944:2 7001:3 7252:1 7272:1 7518:1 7569:2 
0 0.01296619298461692 0 72:1 152:1 212:1 727:1 1036:1 1145:1 1163:2 1188:2 1287:1 1353:1 1846:1 2079:2 2426:1 2622:1 3086:2 3087:2 3160:1 3466:1 3716:2 3762:1 3942:1 3959:1 4430:3 4513:1 4543:2 5085:1 5313:1 5463:1 5500:1 5696:1 5833:1 5885:1 6430:1 6664:2 6840:1 7051:1 7239:1 7640:1 
0.01339511842230929 0 0 283:1 568:1 708:1 723:1 1036:2 1067:1 1145:1 1188:4 1394:1 1467:1 1473:1 1543:1 1747:1 1785:1 1984:1 2054:1 2079:1 2129:1 2130:3 2155:1 2378:2 2383:1 2484:1 2537:1 2709:3 2888:1 3079:1 3167:1 3421:1 3537:1 3622:1 3716:5 3762:1 3771:1 3827:1 4164:2 4199:1 4430:2 4437:1 4513:1 4564:2 4570:1 4693:1 4978:1 5203:1 5496:1 5776:1 5901:1 5984:1 5990:1 6071:1 6215:3 6430:1 6494:1 6638:1 6662:1 6797:1 6837:1 6840:1 6859:1 6865:1 6872:1 7200:1 7279:1 7347:1 7487:1 7591:1 7660:1 7738:1 7762:1 
0 0 0.001543013736757017 430:1 761:1 1013:1 2115:1 3762:2 3771:1 4082:1 4430:2 4431:2 5090:1 5361:1 7000:1 
0 0.03090641330586384 0 75:1 152:1 198:1 208:1 485:2 843:1 919:1 978:1 1109:1 1145:1 1188:1 1283:2 1287:1 1545:2 1558:1 1583:1 2115:2 2146:2 2328:2 2348:1 2395:1 2597:1 2731:1 2783:1 2916:1 2949:1 3037:1 3161:2 3342:2 3419:2 3716:1 3771:1 3773:3 3782:1 4164:1 4298:1 4508:1 4524:2 4564:3 4683:1 4917:2 5436:2 5879:1 5895:1 5935:3 6024:1 6086:1 6109:1 6427:1 6473:2 6538:2 6555:1 6710:1 6837:2 6840:1 7607:1 
0.00855484439591671 0 0 198:3 212:5 231:3 536:2 549:1 592:2 919:1 1008:1 1188:6 1207:1 1307:2 1353:1 1389:1 1395:1 1545:1 1690:6 2059:1 2079:2 2095:2 2115:1 2180:2 2409:1 2446:1 2547:5 2566:1 2578:1 2651:1 2674:1 2703:1 2709:3 2796:1 2980:1 3087:2 3160:1 3228:1 3374:2 3421:1 3466:1 3562:1 3716:1 3751:1 3762:1 3771:1 4006:1 4025:5 4164:3 4255:2 4366:4 4610:1 4670:2 4819:2 4823:1 5053:2 5109:1 5323:1 5394:1 5480:1 5599:1 5632:1 6042:1 6103:1 6356:1 6430:1 6432:1 6634:1 6837:1 6873:2 6884:1 6934:2 6940:1 7001:1 7071:1 7211:1 7239:1 7253:1 7256:3 7499:1 7660:1 7661:1 7685:1 
0.0002669940993577916 0 0 198:1 1036:1 1145:1 1188:2 1785:1 1865:3 1952:1 2115:1 2146:1 2709:1 2876:1 3148:2 3181:1 3546:1 3624:1 3716:2 3762:2 3771:2 3780:1 4430:1 4431:1 4513:1 4521:1 4749:1 5107:1 5387:1 5660:1 5853:1 6840:1 6865:1 6887:1 7225:1 7456:1 
0 0.003054417145029027 0.000403003696821605 7:1 22:1 24:1 43:2 72:3 212:1 218:1 231:1 504:1 525:1 573:1 628:1 661:1 664:1 668:1 706:1 741:1 764:1 772:1 857:1 874:1 889:1 908:1 991:1 1036:4 1075:1 1109:2 1126:1 1137:1 1145:3 1188:9 1265:1 1298:1 1335:1 1353:1 1357:1 1434:1 1469:1 1480:1 1493:1 1608:1 1643:1 1690:2 1785:1 1847:1 1890:3 1897:1 1951:1 1964:1 2048:1 2079:3 2227:1 2244:1 2251:1 2298:1 2347:1 2353:1 2412:1 2446:1 2448:1 2504:1 2530:6 2541:2 2576:1 2622:1 2721:2 2748:1 2783:1 2893:1 2922:2 2979:1 2991:1 3087:2 3115:2 3236:1 3292:1 3365:1 3421:1 3430:1 3537:1 3540:1 3678:2 3681:1 3716:3 3762:2 3929:2 3959:1 3964:2 4011:1 4142:2 4164:2 4199:1 4209:1 4255:2 4261:1 4302:1 4320:1 4366:1 4418:1 4430:2 4431:1 4521:2 4524:1 4541:1 4543:1 4737:1 4877:2 4888:1 4917:1 4940:2 4972:1 4977:7 4983:2 5035:1 5077:1 5092:1 5122:1 5161:1 5182:1 5191:1 5313:1 5435:1 5494:3 5524:1 5552:2 5744:1 5748:1 5804:2 5833:6 5850:1 5885:1 5949:1 5970:1 6043:1 6070:1 6111:1 6160:1 6164:1 6427:1 6430:1 6483:1 6540:1 6676:1 6710:1 6809:4 6837:1 6859:1 6873:1 6954:2 7028:1 7140:1 7185:1 7193:1 7196:1 7225:1 7362:1 7524:1 7628:1 7659:1 7736:1 7738:1 
0.03424639149049378 0 0 312:1 549:1 654:2 1044:1 1083:1 1145:1 1188:1 1307:1 1493:1 1870:1 2054:1 2115:1 2317:1 2709:2 2825:1 3662:1 3762:2 3771:2 4130:4 4430:3 4507:1 4524:1 4564:1 5660:2 5843:1 5895:1 5936:1 6150:2 6510:1 6520:1 6539:1 6873:1 7640:1 
0.002112140141252911 0 0.01353399778555818 107:2 136:2 152:2 198:2 212:1 260:1 359:2 504:2 594:1 750:14 908:1 1036:1 1063:1 1067:2 1145:3 1163:2 1188:3 1198:5 1395:1 1437:1 1469:5 1511:1 1545:1 1690:1 1721:3 1722:1 1755:1 1870:1 1897:1 1932:2 1934:1 2079:1 2093:1 2096:2 2115:3 2144:2 2146:1 2181:1 2246:3 2313:3 2446:1 2473:1 2484:2 2499:1 2512:1 2513:2 2566:2 2622:3 2683:1 2709:1 2716:1 2783:2 2796:1 2893:1 3301:8 3310:1 3354:1 3369:1 3412:1 3437:1 3473:1 3486:1 3562:1 3593:2 3638:2 3716:1 3762:3 3771:1 3919:1 3959:1 4000:1 4164:2 4227:1 4284:1 4305:1 4418:1 4430:4 4440:1 4463:1 4524:2 4554:3 4693:1 4749:1 4849:1 4853:1 4863:1 4888:2 4917:1 4955:1 5201:1 5231:1 5343:1 5387:1 5491:1 5500:1 5508:4 5535:1 5619:1 5626:1 5660:1 5782:1 5825:1 5850:1 5895:2 5941:1 5952:1 5973:1 6162:1 6237:1 6309:1 6310:1 6430:4 6483:1 6544:1 6627:1 6725:1 6837:1 6840:1 6906:1 6968:1 6976:2 7001:1 7193:1 7239:1 7316:1 7373:2 7500:1 7516:1 7571:1 7580:1 7640:1 7717:1 
0 0.0003761967732350265 0 45:1 71:1 72:1 87:1 105:1 123:1 194:4 208:2 284:2 362:8 365:1 549:1 577:2 626:1 628:1 638:8 705:1 738:1 867:1 874:1 919:3 1036:1 1101:1 1109:1 1141:1 1144:1 1145:3 1155:1 1188:1 1226:1 1287:1 1305:1 1353:1 1437:2 1545:1 1590:1 1672:3 1680:9 1747:3 1847:2 1890:2 1932:1 2063:1 2113:2 2196:1 2222:1 2348:1 2395:2 2446:1 2531:1 2616:1 2678:1 2683:1 2709:3 2784:1 2796:1 2839:1 2879:5 2977:1 2980:1 3107:1 3197:1 3253:1 3299:1 3378:1 3425:1 3537:1 3552:1 3710:1 3715:1 3716:2 3762:4 3771:2 3773:1 3795:4 3818:3 3887:1 3889:1 3952:2 3959:1 4006:1 4095:1 4179:1 4240:1 4251:1 4261:1 4300:1 4302:1 4405:1 4430:10 4431:1 4513:1 4523:1 4524:1 4707:2 4782:1 4978:1 5085:4 5112:1 5147:1 5166:1 5257:1 5449:2 5457:1 5601:1 5663:1 5696:1 5776:1 5845:1 5920:1 5990:1 6018:1 6024:1 6051:1 6081:1 6083:1 6086:1 6121:1 6158:1 6160:1 6249:2 6430:1 6534:1 6816:2 6837:2 6859:1 6884:1 6892:1 6905:1 6967:1 7031:1 7152:1 7334:1 7347:2 7447:2 7578:1 7660:1 7712:1 7744:1 
0 0 0.02338826521978359 170:1 573:1 761:1 1018:1 1434:1 1521:1 1890:1 2290:2 2347:2 2484:2 2683:1 2980:1 3281:1 3431:1 3437:1 3762:5 3959:3 4164:1 4246:1 4525:1 4653:1 4774:3 5265:1 5795:1 6340:1 6430:2 6859:1 6909:1 7499:1 
0.1386425414279028 0 0.003076571507148675 707:1 750:1 1013:1 2146:1 2613:1 2870:1 3412:1 3421:1 5211:1 5895:1 6252:1 6430:1 
0.0003339340882512153 0 0 72:1 588:1 604:1 1036:1 1145:2 1188:1 1353:1 1383:1 1490:1 1766:1 2079:1 2640:1 3068:1 3668:1 3716:1 3762:5 3771:1 3936:1 4089:1 4366:2 4430:1 4431:1 4524:1 5085:1 5086:1 5128:1 5777:1 5838:1 6150:1 6500:1 6650:2 6679:1 6837:1 6874:1 6909:1 7109:1 7225:1 7346:1 7640:1 
0.01463996465950062 0.01161022983744471 0.003575584180408972 28:1 87:1 102:1 211:3 212:9 242:3 283:1 504:1 524:2 549:2 599:1 626:1 628:3 696:1 746:1 754:1 778:1 784:1 850:1 968:1 1020:1 1036:2 1070:2 1090:1 1092:1 1109:3 1188:4 1283:1 1345:2 1368:2 1404:2 1434:1 1469:4 1479:1 1538:1 1554:1 1563:1 1672:1 1680:1 1775:1 1890:1 2079:3 2124:3 2180:7 2186:2 2229:4 2241:1 2547:2 2593:3 2669:1 2796:1 2803:1 2891:1 2907:1 2943:1 2958:1 2980:1 3150:1 3228:2 3275:1 3321:1 3421:3 3510:1 3513:1 3525:1 3537:1 3562:2 3716:2 3762:1 3773:1 3819:1 3981:2 3992:3 4053:2 4142:2 4164:2 4200:1 4219:2 4227:2 4246:1 4251:1 4255:1 4284:1 4321:1 4430:1 4432:1 4495:1 4512:1 4513:1 4521:1 4582:1 4637:3 4654:1 4679:1 4856:1 4972:1 5023:2 5067:1 5069:1 5092:1 5103:2 5152:1 5160:2 5365:3 5441:1 5630:1 5632:1 5739:3 5776:3 5805:1 5811:1 5853:1 5888:2 5920:1 5935:1 5948:1 5954:1 6055:2 6225:1 6288:1 6325:1 6331:1 6483:1 6500:1 6517:1 6617:1 6634:1 6830:1 6837:2 6846:3 6880:1 6884:3 6940:1 6953:1 6968:1 7028:1 7104:1 7106:3 7301:1 7335:1 7349:1 7474:1 7640:1 7731:2 
0 0.01402605968719195 0 198:1 212:1 549:1 784:2 850:1 1030:1 1067:2 1140:1 1145:1 1188:4 1437:1 1890:1 1911:1 2079:1 2115:1 2164:1 2194:1 2374:5 2395:1 2400:2 2450:6 2640:1 2783:1 3034:1 3060:1 3087:3 3092:1 3374:1 3412:4 3421:1 3443:1 3578:1 3625:4 3762:2 4012:2 4080:1 4261:1 4513:1 4521:1 4554:1 4590:2 4703:2 4821:1 4863:1 4917:1 5024:1 5092:1 5180:1 5441:1 5493:1 5508:1 5696:1 5725:3 6102:1 6234:1 6399:2 6430:1 6432:2 6461:1 6585:1 6653:2 6699:3 6859:1 6905:1 6953:1 7225:1 7239:1 7601:2 7640:1 7753:2 
0.03984657608997261 0 0 919:1 1145:1 1622:1 1897:1 1970:1 3420:1 3762:1 3771:1 4164:1 4256:1 6430:1 6458:1 
0.02178951407294125 0.04755753992677039 0 208:1 212:1 255:1 448:1 549:1 1067:1 1145:1 1500:1 1690:1 2328:1 2796:1 2876:1 3342:1 3716:1 3762:1 4257:1 4430:2 5085:1 5221:1 6873:1 7100:1 7640:1 
0.004722804172927321 0 0.009985070303863168 107:1 117:1 186:2 211:2 212:1 231:1 236:1 283:1 397:2 430:1 464:1 504:1 520:1 597:1 626:1 628:22 661:6 692:1 738:1 755:2 815:1 898:3 908:2 942:1 1020:8 1036:1 1090:1 1109:1 1110:1 1145:1 1163:1 1188:5 1213:2 1216:1 1217:1 1270:1 1287:1 1327:1 1345:2 1357:1 1385:1 1426:2 1434:1 1470:1 1479:5 1505:1 1581:3 1602:1 1690:3 1713:1 1734:1 1737:1 1814:1 1910:1 1959:3 1964:1 2074:1 2075:1 2079:3 2146:2 2191:1 2229:2 2251:1 2284:1 2311:3 2328:1 2395:5 2444:3 2446:8 2451:10 2470:1 2512:3 2533:1 2597:7 2664:1 2753:2 2871:1 2888:1 2893:1 2949:1 2958:2 2980:1 3075:2 3076:1 3087:7 3201:1 3229:1 3247:1 3275:5 3293:1 3321:1 3364:1 3439:1 3534:1 3537:1 3562:1 3629:1 3643:2 3716:2 3782:1 3795:1 3854:3 3925:1 3929:1 3974:2 4005:1 4012:2 4047:1 4098:1 4113:1 4125:1 4134:4 4164:1 4185:1 4195:1 4200:1 4217:1 4230:7 4232:9 4240:2 4246:1 4261:3 4284:1 4300:1 4302:3 4365:13 4403:9 4430:1 4431:1 4452:2 4518:11 4524:1 4564:1 4582:1 4622:1 4668:1 4683:3 4693:3 4707:1 4717:2 4805:2 4810:3 4863:4 4917:1 4966:1 4978:1 5028:1 5104:1 5177:2 5313:1 5365:1 5436:1 5443:1 5476:1 5484:1 5486:2 5570:19 5601:8 5623:1 5742:1 5746:1 5776:7 5804:3 5870:3 5895:1 5935:9 5948:1 5969:1 5970:1 6011:1 6040:1 6083:1 6109:3 6162:1 6210:1 6228:2 6249:3 6280:1 6331:1 6340:4 6380:3 6399:1 6411:1 6430:7 6482:1 6502:1 6527:2 6533:1 6837:9 6859:1 6873:3 6905:6 6968:1 6979:4 7003:2 7024:1 7126:1 7203:1 7211:4 7305:1 7335:2 7524:1 7534:1 7571:1 7578:1 7597:3 7603:3 7607:1 7632:1 7660:1 7709:1 7753:2 7762:1 
0.004934906123442456 0 0 65:1 692:1 750:1 772:1 919:1 1041:1 1067:2 1145:1 1188:3 1357:2 1443:1 1469:1 1581:1 1870:1 1987:1 2054:1 2164:1 2210:2 2221:1 2244:1 2328:1 2374:1 2553:1 2676:1 2691:3 2719:1 2907:1 3197:1 3201:1 3275:3 3301:1 3523:1 3573:1 3716:3 3833:1 4012:1 4164:2 4302:5 4328:1 4396:1 4477:1 4521:1 4663:1 5266:1 5328:1 5528:1 5838:1 5844:1 5935:1 6053:1 6422:1 6483:3 6613:1 6699:1 6816:2 6837:1 7052:1 7097:1 7335:1 7540:1 7660:1 7762:1 
5.997548813162735e-05 0 0.01133600824886937 56:2 65:2 194:1 212:3 231:1 245:1 247:1 265:1 299:1 450:1 549:1 594:2 599:1 668:1 750:1 773:1 842:8 867:2 889:4 898:1 972:4 1011:1 1023:3 1051:1 1133:1 1145:2 1198:1 1244:1 1251:1 1353:1 1404:1 1433:1 1465:2 1469:1 1470:1 1509:2 1521:1 1524:4 1643:1 1663:1 1690:1 1747:1 1827:2 1850:2 1859:1 1888:1 1890:5 2017:1 2115:4 2196:2 2297:1 2374:2 2446:1 2451:1 2468:1 2477:1 2505:1 2512:3 2541:1 2547:3 2548:1 2587:1 2721:1 2747:1 2796:1 2803:1 2888:1 2891:1 2916:2 2980:1 3098:1 3107:3 3193:1 3217:6 3279:1 3354:1 3413:1 3499:1 3510:1 3519:1 3544:2 3552:1 3569:2 3681:1 3706:1 3712:1 3724:1 3762:10 3771:10 3772:1 3773:2 3805:3 3831:2 3864:2 3889:1 3952:2 3953:1 3972:1 3981:1 4053:1 4150:2 4179:1 4182:3 4255:7 4279:1 4430:5 4432:1 4445:1 4483:1 4521:1 4570:3 4582:1 4644:3 4718:3 4752:1 4782:2 4839:1 4884:1 4897:1 5004:2 5045:1 5090:1 5115:1 5127:1 5225:1 5250:1 5326:1 5385:1 5464:1 5482:2 5493:1 5611:2 5696:1 5776:4 5812:2 5953:1 5960:1 5990:1 6013:1 6024:2 6050:1 6071:1 6103:2 6247:21 6248:3 6265:2 6331:1 6345:2 6346:1 6386:1 6494:2 6534:1 6591:2 6622:18 6628:1 6680:2 6770:1 6777:1 6832:13 6859:1 6997:1 7104:1 7196:1 7250:2 7256:1 7330:1 7418:1 7499:1 7518:1 7550:1 7569:1 7651:2 7713:2 7736:1 7749:1 
0 0 0.01923086576566997 21:1 284:1 558:1 661:1 761:2 818:1 1013:1 1036:3 1041:1 1188:7 1353:1 1434:1 1514:1 1581:1 1655:1 1741:2 1850:1 2079:1 2115:1 2146:1 2709:1 3364:1 3716:4 3751:2 3842:1 4124:3 4179:1 4230:2 4430:3 4554:1 4888:1 4909:1 5085:1 5110:1 5223:1 5508:1 5795:1 5834:1 5853:1 6339:1 6622:2 6839:1 6934:1 7000:1 7359:1 
0.001305194161021971 0 0 45:1 95:2 343:1 543:2 648:1 668:2 852:1 942:1 989:1 1036:1 1188:1 1203:1 1276:1 1353:3 1530:1 1762:1 1785:1 1888:2 1890:1 2113:1 2146:1 2251:1 2297:1 2348:2 2403:1 2477:1 2640:2 2697:1 2700:1 2819:1 2980:1 3002:1 3408:1 3431:1 3602:1 3643:1 3668:1 3716:1 3799:3 3890:2 3981:1 4034:1 4062:1 4187:1 4230:1 4240:1 4430:2 4513:1 4632:1 5053:1 5387:1 5500:1 5601:1 5696:1 5895:1 6103:1 6362:1 6430:1 6483:1 6610:1 6680:1 6817:3 6997:1 7109:2 7148:3 7211:1 7288:1 
0.001034850778031198 0 0 504:1 668:1 761:2 818:1 1036:1 1129:2 1145:3 1188:1 1434:1 1747:1 2243:1 2640:1 2836:1 2887:1 3421:1 3716:1 4164:1 4230:1 4430:1 4666:1 4749:1 4840:1 4917:1 5096:1 5110:1 5740:1 5795:1 5853:1 5895:1 6103:1 6626:1 6710:1 7000:1 7347:1 7456:1 7660:1 
0.01319209132636406 0 0 21:1 198:1 212:1 558:1 692:2 1008:1 1036:1 1145:3 1158:1 1188:12 1287:2 1387:1 1434:1 1469:1 1525:1 1545:2 1680:1 1690:5 1802:2 1890:2 1984:1 2009:1 2069:1 2079:1 2088:1 2146:1 2547:1 2566:1 2614:1 2688:1 2709:1 3009:2 3228:1 3342:1 3472:2 3501:1 3531:1 3716:6 3771:1 3941:1 3942:1 3952:1 4053:6 4164:1 4230:1 4430:3 4513:2 4524:1 4782:1 4853:2 4877:2 4888:1 4977:2 5111:1 5313:1 5396:1 5625:1 5853:1 5895:2 5935:1 6043:2 6338:1 6483:1 6494:1 6510:1 6754:3 6837:2 6934:4 7001:1 7003:2 7004:1 7160:1 7640:2 
0 0 0.004124158052426323 549:1 628:1 761:3 818:1 1036:1 1307:1 1984:1 2146:2 2570:2 2614:1 3103:1 3689:1 4015:1 4178:1 4291:1 4430:3 4513:1 4524:1 5110:1 5570:1 5795:2 5853:1 6339:1 6806:2 6928:2 7000:4 7004:1 7347:1 7640:1 
0.00563956444985259 0 0 1145:1 1188:1 1635:1 1680:1 1897:1 2115:1 2146:2 2783:1 3423:1 3429:1 3547:2 3762:1 3771:1 4085:1 4164:1 4508:1 4524:1 5004:1 5109:1 5701:1 5745:1 5895:2 7193:1 7362:1 7404:1 7542:1 7578:1 
1 1 1 1616:2 2803:1 5071:1 
0.00396869877540581 0.01491110809242275 0 2:1 65:1 101:2 152:1 166:1 212:2 300:1 348:1 448:1 668:1 692:3 700:1 898:1 1109:3 1145:2 1188:2 1199:1 1345:1 1353:1 1434:1 1524:2 1558:1 1583:1 1680:1 1690:6 1747:2 2023:1 2037:1 2056:1 2079:1 2142:1 2164:1 2227:2 2240:1 2243:1 2523:3 2612:1 2649:1 2729:1 2731:1 2746:1 2824:1 2980:1 3237:1 3354:2 3412:1 3544:3 3716:1 3762:3 3771:2 3773:2 3784:6 3889:2 4164:2 4179:1 4240:3 4255:1 4352:1 4382:1 4457:1 4521:3 4718:1 4782:1 4926:5 4972:1 4975:1 4988:1 5089:1 5109:4 5198:1 5326:1 5387:1 5578:1 5661:1 5687:1 5804:1 5862:1 5935:1 6024:2 6071:1 6103:1 6211:1 6279:1 6323:1 6362:1 6430:3 6441:1 6710:1 6786:1 6843:2 6859:2 6884:1 7148:2 7196:1 7542:1 7614:1 7628:1 7643:3 7667:1 
0.008141216914581089 0.01878742805656027 0 504:1 594:1 781:1 889:1 1036:1 1145:2 1188:1 1287:2 1302:1 1468:1 1501:1 1680:2 1690:1 1890:1 2146:1 2505:2 2512:1 2750:3 3548:2 3716:1 3771:1 3889:1 3952:1 4430:1 4521:1 4926:1 4977:1 5049:1 5071:1 5598:1 5625:1 5853:1 6343:1 6362:1 6788:1 6815:1 7097:1 
0.001416931075262622 0 0 247:4 430:3 455:1 504:4 603:1 617:1 755:1 772:1 1011:8 1109:1 1135:1 1188:5 1353:1 1433:1 1545:3 1558:1 1827:1 1870:1 1888:1 2054:2 2146:1 2164:6 2281:1 2328:1 2347:1 2395:2 2446:1 2596:1 2741:1 3147:4 3342:2 3551:9 3725:2 3762:5 3782:1 3789:1 3848:1 3864:6 3935:4 4164:1 4179:1 4246:1 4261:2 4284:11 4302:1 4365:1 4389:1 4409:1 4513:1 4533:1 4707:4 4763:2 4874:1 4891:1 4906:1 4917:1 5109:6 5170:1 5273:2 5283:2 5313:1 5466:4 5500:1 5935:4 5952:1 6024:1 6158:1 6263:1 6430:1 6664:1 6699:5 6837:1 6905:5 7153:4 7168:8 7219:1 7370:3 7391:1 7487:2 7580:1 7640:3 7753:1 
0.01098990011749229 0 0 198:1 231:1 479:1 784:2 1017:1 1036:1 1145:3 1188:7 1353:1 1434:2 1493:1 1524:1 1558:2 1690:3 1785:1 2146:1 2164:3 2297:1 2354:1 2547:1 2560:1 2566:1 2602:10 2614:1 3279:1 3421:1 3716:1 3762:3 3771:3 3959:1 4006:1 4096:1 4164:4 4240:2 4255:2 4362:1 4430:1 4513:1 4524:1 4553:1 4706:1 4880:2 4965:1 5053:1 5109:1 5895:1 5935:1 6043:1 6103:2 6430:1 6483:1 6710:1 6837:1 6840:1 6934:2 6976:1 7325:1 7487:1 7640:1 7743:3 7762:1 
0 0.0001478927214755735 0 628:3 649:1 661:1 761:2 818:1 908:1 1036:1 1145:2 1188:1 1434:1 1479:1 2191:1 2229:1 2783:2 2796:1 3087:1 3537:1 3716:1 4230:2 4240:1 4430:1 4513:1 4666:1 4763:1 4917:1 5110:1 5274:1 5795:1 5804:2 5811:1 5853:1 5935:4 5994:1 6313:1 6837:1 6859:1 6873:2 7000:1 7347:1 7542:1 7640:1 7694:1 
0.00293580226244132 0 0 150:1 208:1 232:3 504:1 558:1 628:1 661:1 720:1 1002:1 1036:1 1041:1 1145:3 1188:3 1299:1 1369:1 1374:1 1479:2 1558:1 1581:2 1680:3 1690:6 1749:2 1922:1 1990:1 2079:1 2138:1 2164:1 2227:1 2311:1 2347:1 2488:1 2533:1 2566:1 2612:2 2636:1 2709:6 2731:1 2783:1 2796:2 2801:1 2836:1 2891:1 3164:1 3345:1 3473:1 3716:1 3741:1 3762:3 3771:2 3784:1 3854:1 4073:3 4164:2 4217:1 4230:1 4291:1 4430:3 4524:1 4535:1 4558:1 4729:1 4763:1 4782:1 4813:1 4834:1 4853:1 4863:1 4947:1 4965:2 4972:1 4986:7 5085:1 5087:4 5107:1 5160:1 5182:1 5221:1 5319:4 5330:1 5335:1 5811:1 5847:1 5875:1 6235:1 6244:2 6430:2 6555:1 6628:1 6699:1 6840:1 6873:3 6893:1 6923:1 6936:2 6945:2 6968:1 7305:3 7510:1 7542:1 7712:1 
0.02225968424052047 0 0 95:1 164:1 504:1 558:2 671:1 812:1 1188:1 1353:1 1386:1 1409:1 1543:1 1847:1 1888:1 1989:1 2146:1 2348:1 2839:2 3421:2 3568:1 3716:1 3762:2 3927:1 3936:2 3951:1 4308:1 4405:1 4872:1 5201:1 5253:1 5272:2 5387:1 5642:2 5895:1 5903:1 6144:1 6150:1 6218:1 6817:1 6871:1 6990:1 7543:1 7640:1 
0.004765381535941734 0 0.004011085695065085 72:1 73:1 376:1 405:1 575:1 757:1 761:1 867:1 898:1 921:1 989:1 1036:1 1188:1 1287:2 1434:1 1493:1 1581:1 1602:1 1651:1 1690:1 1785:1 1890:1 1897:1 2146:2 2164:1 2297:1 2324:1 2597:1 2599:1 2709:1 2883:2 3070:1 3087:1 3182:1 3199:1 3302:1 3321:1 3421:1 3762:1 3773:1 3819:1 3855:1 3889:1 3890:1 3959:1 4130:3 4131:1 4141:2 4179:1 4240:1 4291:1 4430:1 4523:1 4524:1 4632:1 4672:1 4705:2 4707:1 4888:1 4917:1 4926:1 5085:1 5564:1 5795:1 5812:1 5935:3 6164:1 6331:1 6339:1 6525:1 6534:1 6699:1 6759:1 6840:1 6944:1 7000:1 7155:1 7226:1 7428:1 7462:1 7569:2 7578:1 7618:1 7707:1 
0.02956830988999731 0.01153867058357278 0.0262615816278485 7:1 145:1 158:1 199:1 208:2 218:1 236:1 263:1 311:6 448:2 503:1 524:1 549:1 558:1 710:1 738:1 852:2 908:1 930:1 968:1 1013:1 1070:1 1109:2 1145:3 1163:2 1166:1 1188:3 1270:1 1365:1 1394:1 1423:1 1434:1 1469:1 1521:2 1581:1 1608:3 1690:1 1729:1 1761:2 1870:1 1901:3 1922:1 1959:1 1964:1 2043:1 2054:1 2071:1 2075:1 2079:2 2143:3 2192:1 2214:1 2257:1 2341:1 2395:1 2446:1 2474:1 2486:4 2512:1 2522:1 2574:1 2613:1 2617:1 2638:1 2748:2 2749:1 2803:14 2852:1 2996:1 3076:1 3144:1 3342:1 3364:1 3466:2 3503:1 3534:1 3603:1 3643:1 3716:2 3773:1 3802:1 3819:1 3822:1 3929:2 3976:1 4164:2 4220:1 4261:1 4300:1 4302:2 4321:2 4364:1 4366:3 4430:2 4497:1 4513:1 4521:1 4558:1 4573:1 4582:1 4683:1 4707:1 4863:1 4922:1 4960:1 5111:1 5160:1 5221:1 5241:1 5387:1 5486:1 5570:7 5578:1 5825:1 6011:2 6013:1 6024:1 6086:2 6193:1 6207:1 6228:1 6257:1 6357:1 6380:1 6411:1 6430:3 6452:1 6517:1 6540:1 6578:1 6676:1 6699:1 6770:1 6884:2 6905:3 6936:2 6937:2 6976:1 7001:1 7200:1 7252:1 7305:5 7307:1 7524:1 7597:1 7640:2 
0.03867856369251944 0 0 152:1 309:1 504:1 787:1 1036:3 1109:1 1145:2 1188:4 1493:1 1524:1 1690:1 1785:1 2164:1 2444:1 2686:4 2709:1 2836:1 2985:1 3075:1 3716:2 3762:1 4164:3 4430:3 4524:1 4863:1 4950:1 5109:1 5661:1 5811:1 5845:1 5895:1 6576:1 6831:1 6859:1 7007:1 7298:2 7628:1 7640:1 
0 0.01549138503072795 0 198:1 746:1 919:1 1036:1 1145:1 1188:1 1964:1 2079:1 2328:1 2409:1 2621:1 2888:1 3228:1 3406:2 3716:2 3888:1 3959:1 4430:1 4880:1 5350:1 6430:1 6649:1 6655:1 7640:1 
0.01540619478409218 0 0 311:1 868:1 1036:3 1067:2 1136:2 1188:4 1395:1 1552:1 2347:1 2505:2 2566:1 2709:1 2888:1 3086:4 3548:3 3716:5 3863:1 3968:1 4064:2 4164:2 4430:3 4524:1 4909:1 5049:1 5463:1 5825:1 5860:1 6430:2 6483:1 6650:1 6837:1 6840:1 6855:1 6874:1 7347:1 7553:1 7640:1 
0 0.001670026297127713 0 40:2 150:2 170:5 218:1 247:1 312:1 368:1 430:1 536:1 599:8 628:1 649:1 705:1 723:1 771:1 867:5 898:5 908:1 942:1 1109:2 1134:1 1145:5 1188:4 1410:2 1424:1 1469:2 1525:1 1535:1 1538:1 1545:2 1608:1 1680:2 1690:3 1870:1 1890:4 1932:1 1983:2 2025:1 2079:1 2088:1 2115:2 2145:2 2164:2 2212:1 2229:1 2251:2 2347:1 2358:1 2395:3 2547:1 2574:1 2596:2 2638:2 2709:1 2751:1 2766:1 2796:5 2805:1 3135:3 3149:1 3286:1 3301:1 3324:6 3342:1 3452:2 3519:1 3526:1 3537:1 3562:1 3634:1 3725:1 3771:1 3803:5 3852:1 3864:2 3886:3 3919:1 3981:2 4164:2 4227:1 4261:2 4364:1 4457:1 4487:1 4524:1 4614:1 4637:1 4732:1 4750:1 4917:1 4958:1 5092:1 5107:1 5194:1 5238:1 5313:1 5361:1 5626:1 5696:1 5776:3 5869:2 6024:2 6103:1 6162:2 6173:1 6248:4 6290:1 6331:1 6340:1 6430:5 6534:4 6555:1 6837:1 6873:1 6953:2 6968:2 7014:3 7028:2 7135:1 7155:1 7171:1 7225:1 7335:1 7347:1 7487:1 7550:6 7578:2 7607:1 7743:1 7762:1 
0.01199215186707553 0 0 573:1 599:1 868:1 1036:1 1067:1 1109:1 1188:2 1469:1 1618:1 1959:1 2131:1 2164:1 2347:1 2566:1 3466:1 3548:2 3716:2 3741:1 3863:1 4054:1 4064:1 4164:3 4246:1 4554:1 4581:1 4853:1 4909:1 4926:1 5049:1 5194:1 5508:1 5697:1 5825:1 6109:1 6380:1 6452:1 6483:1 6840:1 7126:1 7182:1 7347:1 7380:1 7397:1 7553:1 7640:1 
0.005091825867740022 0 0 152:2 212:1 242:1 263:1 366:1 489:1 558:1 643:1 654:2 692:1 700:1 1004:2 1036:1 1188:1 1336:1 1353:2 1690:1 1847:1 1890:1 2007:1 2076:1 2079:2 2229:1 2328:1 2461:3 2512:1 2620:1 2634:1 2750:1 2992:1 3086:1 3122:1 3368:2 3433:1 3536:1 3537:1 3716:1 3762:1 3771:1 3890:1 3922:1 3959:1 4155:3 4164:2 4188:1 4451:1 4524:1 4676:1 4718:1 5053:1 5129:1 5434:1 5436:1 5446:1 5776:1 5845:1 5895:1 5935:1 5988:1 6840:1 6851:1 6859:1 7071:1 7476:1 7640:1 7643:1 
0 0 0.001517354129388429 211:2 295:1 348:1 504:1 535:1 536:1 566:1 628:1 661:3 669:1 746:1 774:1 907:1 1021:2 1036:1 1109:2 1145:1 1188:3 1189:2 1274:1 1316:2 1469:3 1505:1 1540:1 1620:2 1690:1 1735:1 1785:1 1814:4 1850:1 1924:1 2066:1 2074:1 2079:1 2131:1 2139:3 2146:2 2164:1 2229:1 2345:1 2410:1 2446:2 2499:1 2543:1 2638:2 2674:2 2676:1 2771:1 2789:1 2795:3 2888:1 2894:1 2914:3 2939:1 2980:1 3016:1 3052:1 3087:1 3095:1 3110:1 3115:1 3229:1 3375:1 3429:1 3513:1 3522:2 3537:1 3578:1 3716:3 3725:1 3762:1 3814:1 3874:1 3963:1 4012:1 4085:1 4164:3 4195:4 4230:1 4430:1 4440:1 4481:1 4513:1 4524:1 4552:1 4558:1 4564:1 4570:1 4629:1 4813:1 4849:1 4890:1 5016:1 5103:1 5129:1 5220:2 5221:1 5313:2 5363:2 5387:1 5449:1 5491:3 5645:1 5895:1 5952:1 5990:1 5996:1 6014:1 6024:2 6081:1 6086:1 6160:1 6193:1 6245:1 6246:1 6281:1 6331:2 6334:1 6337:1 6430:3 6483:1 6539:1 6570:1 6581:1 6624:2 6680:1 6830:1 6837:4 6856:1 6866:1 6869:3 6879:1 6884:1 6902:1 6965:1 7001:1 7126:2 7178:3 7200:1 7263:1 7305:1 7337:1 7369:1 7628:1 7640:1 7651:1 7654:1 
0.1034118194429728 0 0 613:1 1145:1 1188:1 1353:1 1785:1 1808:1 3716:1 7640:1 
0.009386120592730553 0 0 212:1 1067:1 1188:2 1246:1 1643:1 1814:1 2074:1 2146:3 2185:1 2888:1 2980:1 3716:1 4164:1 4195:1 4430:1 4513:1 4518:1 4523:1 4524:1 4564:1 4985:1 5625:1 6223:1 6430:1 6539:1 6680:1 6840:1 6865:1 7640:1 
0 0.003707205439945438 0 7:1 69:1 164:2 198:2 212:3 231:1 338:1 397:1 403:1 430:1 504:2 520:1 589:1 594:7 596:2 661:1 708:1 741:1 765:1 827:1 852:3 869:1 948:1 992:1 1008:2 1033:1 1109:2 1131:1 1145:3 1188:6 1210:1 1244:1 1324:1 1353:1 1387:1 1437:1 1479:1 1493:1 1502:1 1524:1 1551:3 1557:1 1583:4 1690:1 1700:1 1740:1 1763:1 1766:1 1775:1 1776:1 1836:1 1839:1 1863:1 1890:1 2039:1 2079:4 2127:1 2136:1 2164:1 2181:1 2227:2 2257:2 2328:2 2348:1 2386:1 2448:2 2460:1 2486:1 2512:2 2537:4 2547:3 2576:2 2578:2 2611:1 2613:1 2614:1 2683:2 2701:1 2709:2 2770:1 2796:2 2798:1 2805:3 2876:1 2894:2 2982:1 3053:1 3087:1 3122:1 3130:1 3174:1 3241:1 3338:1 3420:1 3437:1 3454:1 3456:2 3477:2 3545:1 3562:1 3585:2 3587:1 3610:1 3682:1 3716:2 3762:7 3771:4 3831:3 3852:1 3890:2 3912:1 3942:1 3999:1 4012:1 4085:1 4121:1 4129:1 4157:1 4164:3 4225:1 4230:1 4268:1 4304:1 4339:1 4357:1 4359:1 4365:1 4366:5 4412:2 4430:1 4513:1 4521:1 4524:1 4547:1 4693:1 4749:1 4813:1 4877:2 4888:1 4924:1 4952:1 4955:2 4966:1 5016:3 5044:1 5071:1 5111:1 5224:1 5321:1 5493:1 5562:1 5588:1 5610:1 5625:1 5702:1 5719:1 5776:1 5787:1 5804:3 5845:1 5920:1 5935:2 5954:2 5994:1 5998:2 6067:1 6086:1 6136:1 6223:1 6251:1 6261:1 6271:1 6280:1 6338:1 6408:1 6430:1 6582:1 6626:1 6648:1 6680:2 6683:1 6749:1 6798:1 6837:3 6859:3 6945:1 6968:4 6979:1 7003:1 7015:1 7040:1 7225:1 7239:1 7255:1 7256:1 7275:1 7305:1 7367:1 7369:1 7393:1 7399:1 7499:3 7518:1 7522:1 7534:2 7575:1 7640:2 7738:1 
0.01436477580607351 0.01257108881620316 0.03752276867441891 170:1 1073:1 1342:1 1521:1 1775:5 2700:1 2803:1 3420:1 3421:1 4006:1 5556:1 6245:1 6884:1 
0.00752330424702937 0 0 919:1 1353:1 1672:1 1847:1 1890:2 2146:1 2903:1 2992:1 3724:1 3771:1 4188:1 4194:1 4255:1 4473:2 4524:1 4967:1 5776:1 5895:1 6430:1 6591:1 6859:1 6953:1 7640:1 7643:1 
0.004808207202857973 0 0 65:1 134:3 203:1 267:1 407:1 577:1 594:1 649:1 755:1 772:1 989:1 1019:1 1036:1 1078:1 1109:1 1131:1 1133:1 1145:1 1188:4 1287:2 1305:1 1469:1 1555:1 1847:1 1888:1 1922:1 2079:1 2512:1 2613:1 2709:1 2839:1 2888:1 3417:1 3419:1 3547:1 3602:1 3716:1 3757:1 3773:1 3789:1 3795:3 4064:1 4164:1 4332:1 4351:1 4405:1 4430:1 4525:1 4570:1 4782:1 4917:1 5216:1 5776:1 5877:1 5895:1 5935:1 5978:1 6494:2 6679:1 6680:1 6934:1 7275:1 7352:1 7568:1 
0.0001702805857099351 0 0 65:1 211:1 355:1 524:2 1036:1 1131:1 1145:1 1188:2 1198:1 1432:1 1434:3 1469:1 1525:3 1606:1 1715:1 1817:1 1927:1 1956:1 2186:1 2446:1 2470:3 2578:2 3182:1 3716:1 3889:1 3941:1 4164:4 4430:1 4513:1 4570:1 4582:2 4918:1 5077:1 5870:2 6430:2 6483:1 6494:1 6568:1 6624:2 6680:2 6847:1 7200:1 7275:1 7291:1 7335:1 7640:1 7738:1 
0.0007540095234921682 0.03145807897845608 0 166:1 194:1 198:1 231:1 331:1 407:1 448:1 462:1 478:1 723:2 755:1 890:1 903:1 1036:1 1131:1 1145:1 1164:1 1188:1 1226:1 1262:3 1425:1 1545:2 1680:5 1690:1 1761:2 2079:1 2143:1 2237:1 2275:1 2512:1 2531:1 2709:2 2718:1 2783:1 2796:1 3079:1 3229:1 3645:1 3716:1 3827:2 4337:1 4430:1 4521:1 4524:2 4564:1 4749:1 4750:1 5053:1 5194:1 5222:1 5283:1 5811:1 5895:1 5941:1 6024:3 6215:2 6340:1 6448:1 6555:1 6655:1 6837:2 6840:1 6873:3 7193:1 7256:1 7305:2 7640:1 7692:1 7694:1 
0.00842510706812692 0 0 723:1 1036:1 1188:2 1785:1 2185:2 2484:1 2709:2 3079:1 3716:2 3762:1 3771:1 3827:1 4430:1 4472:1 4564:2 4978:1 6215:3 7347:1 
0.02325339443907454 0.003849450361572965 0 29:1 448:1 649:1 776:1 874:1 991:1 1036:2 1145:5 1188:3 1524:1 1583:1 1608:2 1704:1 1785:1 2164:5 2242:1 2423:1 2431:1 2548:1 2824:1 3537:1 3716:2 3771:1 4003:1 4085:1 4164:1 4302:1 4430:2 4431:2 4521:3 4543:2 4749:1 4782:1 4853:1 5696:1 5833:3 5885:1 5895:1 5954:1 6257:1 6263:2 6595:1 6840:1 6873:1 6944:1 7028:1 7031:1 7347:1 7510:1 7549:1 7628:1 
0.00252687989258265 0 0 72:1 231:1 242:1 485:2 599:1 919:1 948:1 978:4 1145:2 1188:1 1198:1 1274:1 1353:1 1387:1 1434:2 1454:1 1545:2 1785:2 1890:1 2079:2 2115:1 2566:1 2709:1 2716:1 2731:2 2783:1 2792:1 2916:4 2980:1 3335:2 3342:2 3412:1 3678:2 3716:1 3762:3 3771:1 3819:1 4164:2 4299:2 4513:1 4524:1 4564:2 4839:1 4917:3 4926:1 5129:1 5203:2 5326:1 5387:2 5436:1 5552:2 5920:1 6081:1 6430:1 6788:1 6837:1 6839:1 6840:1 6884:1 6971:1 7232:1 7640:1 7762:1 
0 0.006607104759919388 0 304:1 504:1 536:1 603:1 658:1 718:1 794:3 832:1 942:1 981:1 985:1 1009:1 1031:1 1054:1 1142:1 1353:1 1501:1 1659:2 1697:1 2056:1 2115:1 2183:1 2209:1 2504:1 2526:1 2553:1 2578:1 2635:1 2786:2 2796:1 2991:1 3087:1 3228:1 3634:1 3662:1 3813:1 3836:2 3951:1 3971:1 3981:1 4085:1 4200:2 4227:1 4236:1 4319:1 4322:1 4570:1 4818:1 4844:1 4874:1 4995:1 5115:1 5231:1 5265:1 5435:1 5493:1 5571:1 5584:1 5776:2 6106:1 6108:2 6210:1 6540:1 6642:1 6837:1 7016:1 7044:1 7583:1 7648:1 
0 0 0.004628814020047914 101:1 231:1 342:1 465:1 504:2 549:1 577:3 659:1 661:2 697:1 1036:2 1145:1 1188:4 1246:1 1274:1 1434:6 1616:1 1690:1 1712:1 1747:1 1782:1 1859:1 2022:1 2054:1 2079:1 2212:2 2239:1 2243:1 2476:1 2495:1 2537:2 2597:1 2640:2 2709:2 2730:1 3071:1 3098:1 3122:1 3228:1 3650:1 3716:3 3731:1 3762:7 3771:5 3782:1 3795:3 3915:1 3952:1 3959:1 4043:1 4057:1 4072:3 4164:4 4219:1 4382:1 4430:2 4439:1 4494:1 4513:1 4525:1 4604:1 4689:1 4696:1 4840:1 4849:1 4888:1 4917:1 4923:3 4926:2 4978:6 5016:1 5053:1 5092:1 5109:1 5224:1 5228:1 5253:1 5313:1 5387:1 5660:1 5799:1 5833:1 5934:1 5935:1 6094:1 6338:1 6502:1 6508:1 6591:2 6626:1 6679:1 6859:1 6934:1 6975:1 6992:1 7052:1 7121:1 7265:1 7274:3 7303:1 7347:1 7506:1 7534:1 7550:1 7557:1 7640:1 7648:1 7660:1 7738:1 
0 0 0.0002224714342942469 45:1 101:1 305:1 331:1 362:1 750:1 852:1 907:1 1036:1 1145:1 1188:2 1210:1 1244:1 1287:2 1320:1 1326:1 1434:2 1543:1 1690:1 1785:1 1959:1 2146:2 2164:1 2550:1 2720:1 2743:1 2750:1 2783:1 3537:1 3716:1 3805:1 3842:1 3899:1 3944:1 4134:1 4164:1 4200:1 4230:1 4430:1 4539:1 4570:1 4582:1 4888:2 4905:1 4917:1 4977:1 5109:1 5160:1 5203:1 5332:1 5528:1 5697:1 6024:1 6339:2 6345:1 6494:1 6859:1 7148:1 7252:1 7640:1 
1 0.009630687297066634 0 867:1 1036:1 1145:1 1188:1 1198:1 1353:1 1865:2 2186:1 2676:1 3716:1 3888:2 4430:1 6430:2 7219:1 
0 0.001079434641953867 0 176:1 198:1 218:1 260:1 290:1 318:1 331:1 350:1 381:1 504:2 558:1 577:1 596:2 668:1 723:2 814:1 818:1 867:1 869:2 883:1 918:1 919:1 942:1 948:1 1017:1 1048:1 1058:2 1109:1 1122:1 1145:3 1188:9 1264:1 1374:1 1387:1 1405:1 1524:1 1545:1 1548:1 1583:3 1680:4 1690:3 1728:1 1936:1 2039:2 2056:2 2069:1 2079:2 2164:1 2328:1 2348:1 2358:1 2547:1 2548:2 2578:1 2617:2 2620:1 2709:2 2992:1 3200:1 3213:1 3254:1 3275:2 3301:2 3520:1 3531:1 3706:1 3716:3 3768:1 3782:1 3889:4 3890:1 3959:1 4096:1 4164:1 4179:1 4199:1 4352:1 4366:2 4430:1 4446:1 4472:1 4513:1 4525:1 4773:1 4853:1 4888:1 4983:1 5109:2 5121:1 5449:2 5845:2 5853:1 5935:2 5948:1 5974:1 5990:1 6015:1 6024:1 6043:1 6126:1 6168:1 6240:1 6241:2 6245:1 6331:1 6338:2 6362:1 6384:2 6425:1 6427:1 6430:1 6555:1 6683:2 6706:1 6740:1 6750:1 6798:2 6803:1 6876:1 6880:1 6940:1 7028:1 7256:1 7285:1 7305:1 7338:1 7347:2 7456:2 7518:2 7578:1 7584:1 7607:1 7640:1 7645:1 7667:2 7675:1 7692:1 7723:2 
0.0280356953275481 0.005533419391376116 0.02756687341717792 328:1 584:1 626:1 1013:1 1145:1 1345:1 1353:1 1357:1 1567:1 1847:1 1883:1 2612:1 2739:1 3097:1 3174:1 3762:2 3771:2 3959:4 4006:1 4219:1 4888:1 5803:1 6158:1 6637:1 7071:1 7151:1 7571:1 
0 0.001580703376466376 0 105:4 152:1 166:1 212:6 258:1 312:1 400:3 441:1 477:3 481:1 504:2 549:2 577:3 628:1 713:1 738:1 852:1 903:1 942:1 1008:2 1009:2 1024:1 1106:1 1141:1 1145:1 1170:1 1188:2 1353:2 1434:6 1469:1 1493:1 1508:1 1521:1 1558:1 1584:1 1639:1 1748:1 1776:2 1823:1 1870:1 1877:1 1890:1 1932:1 1946:1 2040:1 2079:2 2164:3 2180:1 2229:1 2297:1 2298:1 2347:2 2354:1 2470:1 2484:1 2537:2 2549:1 2565:1 2649:2 2676:1 2703:2 2799:1 2836:1 2841:1 3064:3 3143:1 3173:1 3279:1 3299:1 3301:1 3463:1 3484:1 3516:2 3537:1 3634:1 3663:1 3762:3 3771:1 3795:2 3831:1 3957:1 3959:2 3964:1 4053:1 4113:2 4164:1 4357:1 4418:1 4513:1 4524:2 4543:1 4553:1 4601:3 4679:1 4707:1 4749:1 4852:1 4880:1 4897:1 4917:2 4955:1 4959:1 4978:1 4990:1 5203:1 5365:1 5441:1 5491:1 5556:2 5569:1 5660:1 5680:3 5776:1 5804:2 5895:1 5908:1 5933:1 5935:1 5990:1 6024:2 6035:1 6235:1 6257:1 6336:1 6338:1 6380:1 6430:3 6477:1 6721:1 6752:1 6770:2 6803:1 6840:1 6859:1 6873:2 6905:1 6968:2 7002:1 7003:1 7065:1 7103:1 7132:1 7177:1 7321:1 7487:1 7510:6 7640:1 7709:1 7738:1 
0.001316678263355049 0 0 549:1 577:1 754:1 1145:1 1785:1 2033:1 2146:2 2279:1 2512:1 2579:1 3354:2 3444:1 3469:1 3762:1 3771:1 3842:1 4134:1 4148:1 4817:2 5265:1 5795:1 5799:1 5818:1 5895:1 6339:1 6976:1 7302:1 7721:2 
0 0.01043286449648847 0 393:1 524:1 772:2 1036:1 1145:2 1188:1 1307:1 2347:1 2783:1 3342:1 3537:1 3716:2 4006:1 4208:1 4430:1 4513:1 4917:1 6158:1 6430:1 6859:1 7456:1 7640:1 7745:1 
0.002978381218348677 0 0 121:2 212:1 247:1 413:1 536:1 563:1 695:1 761:4 818:1 843:1 867:1 1005:3 1036:1 1060:2 1145:3 1188:3 1246:1 1307:1 1353:1 1387:1 1424:1 1434:1 1525:1 1545:1 1622:1 1680:1 1723:1 1749:1 1870:1 1932:1 2088:1 2164:1 2227:2 2307:1 2638:1 2941:1 2949:1 2958:1 3208:1 3274:1 3342:1 3410:1 3418:1 3421:1 3431:1 3537:1 3645:1 3716:1 3726:3 3762:1 3771:1 3855:1 4164:2 4195:1 4209:1 4240:1 4284:2 4390:1 4430:3 4513:1 4666:1 4706:1 4749:1 4890:1 4917:2 4965:1 4966:2 5067:1 5109:1 5110:1 5147:1 5151:1 5363:1 5380:1 5437:2 5567:1 5636:1 5795:1 5853:1 5895:1 5935:1 6120:1 6211:1 6380:2 6422:1 6534:1 6770:1 6840:1 6873:1 6966:1 6992:1 6997:1 7000:5 7048:2 7052:1 7347:1 7503:2 7556:1 
0 0.02163560947103518 0 212:1 279:1 311:1 348:1 392:1 664:1 1017:1 1021:1 1036:1 1188:4 1198:1 1349:2 1357:1 1374:1 1583:1 1606:1 1623:3 1650:1 1680:1 1847:1 1916:1 2186:1 2523:1 2888:1 2891:1 2952:1 3086:1 3612:1 3716:3 3762:2 3863:1 3865:1 4430:1 4554:1 4926:1 4955:1 5129:1 5182:1 5296:2 5433:1 5508:1 5845:1 6069:1 6837:1 6926:1 7640:1 7713:1 7738:1 
0 0.004179655480640808 0.01149447414307832 113:1 243:2 258:1 267:1 462:1 577:4 654:2 661:1 723:1 782:1 852:1 1011:1 1036:1 1109:1 1145:1 1188:3 1305:1 1307:1 1394:1 1395:1 1558:1 1581:2 1632:1 1674:1 1680:3 1690:3 1856:1 2079:2 2115:2 2131:1 2146:1 2507:1 2709:1 2796:1 2803:2 2888:1 2980:1 3039:1 3113:1 3228:2 3273:1 3409:1 3716:6 3721:1 3773:1 3795:3 4002:1 4035:1 4040:1 4164:1 4165:1 4284:1 4430:2 4550:1 4582:1 4810:1 4917:1 4943:2 5313:1 5414:1 5500:1 5508:2 5532:1 5553:1 5571:1 5623:1 5655:1 5696:1 5877:1 5895:2 5935:1 6069:1 6103:1 6220:1 6235:1 6325:1 6353:1 6502:1 6689:1 6837:2 6909:1 7347:1 7640:1 7648:1 7738:1 
0.006598356038176441 0 0 107:1 208:2 288:1 504:4 661:1 723:4 1036:1 1188:6 1194:5 1287:1 1581:1 2079:1 2164:1 2358:1 2620:1 2709:3 2767:4 2783:1 3079:3 3369:1 3388:1 3478:2 3716:3 3782:1 3818:5 3827:3 4098:1 4230:1 4261:1 4302:1 4430:3 4564:4 4582:2 4683:2 4707:1 4763:4 4917:1 5109:1 5935:3 6086:2 6150:2 6215:1 6272:1 6594:4 6702:1 6837:1 6884:4 6953:2 7226:2 7347:1 7524:4 7578:2 7718:6 7753:1 
0.01994697952345742 0 0.05412393253341624 33:1 73:1 212:2 365:1 655:1 706:1 738:2 774:1 874:1 889:1 1013:1 1067:3 1141:1 1188:3 1199:1 1387:2 1395:2 1425:1 1690:1 1770:1 1785:1 1891:1 2146:3 2172:1 2181:1 2243:1 2297:1 2374:1 2490:2 2566:1 2580:1 2614:1 2709:1 2796:1 2905:1 3125:2 3130:3 3144:1 3201:1 3354:1 3364:2 3547:1 3558:2 3762:1 3771:1 3773:2 4012:1 4205:1 4374:2 4566:1 4777:1 4853:2 4888:3 4905:1 4926:1 4974:2 5129:1 5268:2 5795:1 5879:1 5895:1 6103:1 6150:1 6279:1 6339:1 6384:1 6448:1 6680:1 6837:1 6844:3 6945:1 7004:1 7160:1 7334:1 7518:3 7557:1 7578:1 7617:1 7720:1 
0.005786836876412908 0 0 152:1 170:1 212:1 242:2 258:1 396:1 504:1 549:1 784:1 955:1 1109:1 1145:2 1188:2 1203:1 1294:1 1469:1 1606:2 1741:1 1761:1 1780:1 1785:1 2079:2 2114:1 2115:2 2146:1 2212:1 2214:1 2257:1 2301:1 2362:1 2395:1 2470:1 2484:1 2512:1 2541:1 2613:1 2617:1 2783:1 2796:1 2803:1 2949:1 3141:3 3299:1 3349:1 3503:1 3534:3 3537:1 3716:2 3762:3 3870:1 3981:1 3989:1 4164:2 4167:1 4217:1 4235:1 4305:1 4366:6 4430:3 4513:1 4521:1 4639:1 4849:1 4869:1 4917:1 4923:2 5033:4 5092:1 5107:1 5111:1 5129:1 5313:1 5411:1 5535:1 5553:1 5570:1 5578:1 5770:1 5804:1 5954:1 6150:1 6207:1 6281:2 6340:2 6430:1 6502:1 6689:1 6699:1 6706:1 6840:1 6865:1 6873:1 6968:1 7155:2 7196:1 7250:1 7347:1 7372:1 7456:1 7584:1 7640:1 7694:1 
0.003848639342644991 0.01252862502420402 0 121:1 331:1 376:1 504:1 505:1 594:1 599:1 626:1 723:2 755:1 772:1 867:1 919:1 1036:2 1109:1 1145:1 1188:4 1357:1 1432:1 1434:1 1493:1 1583:1 1785:1 1890:1 2076:1 2079:1 2115:1 2353:1 2634:1 2652:1 2709:1 2788:1 2819:2 3079:1 3228:2 3360:1 3670:1 3716:2 3762:3 3827:2 3959:1 4134:1 4135:1 4179:1 4199:1 4430:1 4431:1 4564:1 4743:1 4845:1 4926:1 5203:1 5240:1 5607:1 5636:1 5849:1 5954:1 6027:1 6103:1 6215:1 6239:1 6430:1 6539:1 6561:1 7060:1 7109:1 7298:2 7544:1 7578:1 7728:1 7738:1 
0.0006231229120888056 0 0 1036:1 1188:2 1469:1 1782:1 2022:1 2146:1 2212:1 2222:1 2239:1 2257:1 2347:1 2613:1 2729:1 3086:1 3716:2 4230:1 4302:1 4366:2 4430:1 4513:1 4524:1 4683:1 4837:2 4923:1 4957:1 5077:1 5250:1 5634:2 5895:1 6430:1 6837:1 6873:1 6934:1 7001:1 7030:1 7494:1 7553:1 7628:1 7640:2 
0 0.002063691322363613 0 2:1 73:1 133:1 144:1 186:2 212:1 267:1 330:1 525:1 577:3 594:5 668:1 671:1 698:3 732:1 827:1 874:1 901:1 948:1 1036:1 1060:4 1109:2 1133:1 1145:1 1150:1 1188:3 1198:1 1199:1 1208:1 1214:1 1345:1 1404:1 1469:1 1479:1 1501:1 1521:1 1531:4 1583:2 1607:1 1608:2 1616:1 1640:1 1690:1 1890:3 1916:1 1927:1 2036:3 2079:1 2141:1 2146:1 2172:1 2192:1 2202:1 2284:2 2297:1 2328:1 2339:1 2341:1 2347:1 2512:1 2537:1 2572:2 2597:2 2709:2 2716:2 2780:1 3037:2 3071:1 3088:1 3109:1 3241:1 3272:2 3374:1 3421:1 3428:1 3439:1 3472:1 3531:1 3615:1 3716:1 3725:1 3726:1 3727:1 3762:2 3771:2 3795:4 3842:1 3999:1 4020:1 4064:1 4162:1 4164:1 4288:3 4308:1 4350:1 4405:1 4424:2 4428:2 4430:2 4483:2 4495:2 4518:1 4523:2 4570:1 4637:1 4653:1 4749:1 4763:1 4853:1 4926:1 4972:1 5016:2 5045:1 5050:1 5058:1 5129:1 5182:1 5216:1 5222:1 5265:1 5283:1 5307:1 5444:1 5543:1 5585:1 5821:1 5850:1 5852:1 5912:3 5969:1 6011:1 6086:1 6090:3 6149:1 6175:1 6392:1 6408:1 6526:1 6703:1 6797:1 6840:1 6868:1 6935:1 7006:1 7347:2 7352:1 7385:1 7487:1 7562:1 7607:1 7639:3 7738:1 
0.0002006563980951269 0 0 107:1 114:1 628:3 685:1 709:1 863:1 968:1 1109:1 1188:4 1197:2 1492:3 1643:1 1790:1 1865:3 2075:1 2244:4 2252:1 2446:2 2448:2 2527:1 2596:2 2768:1 2958:1 2980:2 2999:1 3026:1 3087:2 3279:1 3325:1 3537:1 3559:9 3560:1 3678:6 3716:2 3725:1 3943:1 3991:1 4164:1 4256:1 4405:1 4430:4 4524:1 4541:1 4653:1 4694:1 4833:1 4917:5 4977:5 5188:1 5204:1 5357:1 5552:1 5660:1 5888:2 5921:1 5977:2 6118:1 6136:1 6345:1 6411:1 6430:2 6623:1 6666:1 6676:1 6905:1 6968:2 7140:1 7335:1 7667:1 7686:1 7694:1 
0.001230937563711467 0 0 750:1 991:1 1036:1 1188:1 1672:1 1785:1 2257:1 2613:1 3716:1 3863:1 4366:5 4430:1 4431:1 5833:1 6706:1 6840:1 
0.02542075747202916 0 0.009755832825384272 746:1 1145:1 1188:1 1387:1 1501:1 1524:1 1690:1 2547:1 3369:1 3725:1 3762:1 3771:1 3981:1 4877:2 4888:1 5085:1 5949:1 7731:1 
0 0 0.004155844514748326 198:1 312:1 750:1 1004:1 1036:2 1188:2 1545:1 1680:1 1690:1 2034:1 2079:1 2142:1 2164:1 2612:1 2709:3 3342:1 3716:2 3762:1 3771:2 3919:1 3959:1 4085:1 4217:1 4230:1 4366:2 4430:1 4450:2 4513:2 4554:1 4570:1 4693:1 4888:1 4983:1 5085:1 5129:1 5414:1 5508:1 5630:1 5845:1 6103:1 6430:2 6706:2 6837:1 6968:1 7001:1 7338:1 7447:2 7518:1 7640:1 
0.01276568795621076 0 0 136:1 247:1 558:3 868:1 919:1 942:1 1036:1 1067:4 1073:1 1109:1 1145:3 1188:3 1307:1 1395:2 1524:1 1525:1 1545:1 1656:1 1785:1 1877:1 1959:2 2088:1 2146:1 2164:2 2347:1 2505:2 2613:1 2888:1 2967:1 3342:1 3501:1 3548:3 3715:1 3716:3 4054:1 4164:2 4240:1 4430:3 4521:1 4716:2 4849:1 5049:1 5277:1 5508:1 5895:1 6109:1 6430:1 6483:1 6555:1 6788:1 6809:1 6817:1 6859:1 6873:1 7335:1 7380:1 
0 0.004160565820271471 0.01762072370575881 
0.01796934896874299 0 0 100:1 1143:1 1521:1 2716:1 3130:1 3762:1 3784:1 4810:1 4839:1 4988:2 6680:1 7071:2 
0.005112584809321918 0 0 65:1 107:1 166:1 194:1 231:1 311:1 331:1 462:2 524:1 668:2 919:1 1036:2 1047:1 1067:3 1145:4 1188:3 1258:1 1340:1 1395:2 1434:1 1437:1 1453:1 1469:2 2088:2 2146:1 2164:2 2347:2 2395:1 2493:1 2505:3 2513:2 2597:1 2613:1 2883:1 3087:1 3304:1 3342:1 3355:2 3409:1 3548:5 3552:1 3596:1 3716:3 3762:1 3771:1 3890:1 3919:1 3941:3 4040:1 4164:2 4240:1 4430:3 4520:1 4521:1 4524:1 4554:2 4749:1 4909:1 4917:2 5049:1 5177:1 5213:1 5498:1 5508:1 5697:2 5895:1 5935:1 6725:1 6788:1 6837:1 6879:1 6905:1 7133:1 7219:1 7335:1 7338:1 7347:1 7622:1 
0.01814620565721712 0 0.1157654869012293 408:1 738:1 843:1 958:1 1188:1 1988:1 2115:1 2146:1 2258:1 2317:1 2484:1 2566:1 3364:1 3421:1 3716:1 3749:1 3790:1 4229:1 4741:1 5449:1 5834:1 6339:1 6618:1 7004:1 7568:1 
0 0.007643615917285547 0 27:1 440:1 1036:1 1086:1 1145:1 1163:1 1188:1 1353:1 1434:1 2196:1 2347:1 2462:1 2862:1 3237:1 3321:1 3692:1 3716:1 3736:1 3762:1 3771:1 3944:1 4096:1 4111:1 4255:3 4430:1 4495:1 4685:1 4782:3 4845:1 4880:2 6071:1 6164:1 7325:1 
0 0.0058371429681551 0 29:5 67:2 107:2 208:2 265:2 299:1 405:1 448:3 464:3 649:1 668:1 692:2 723:1 746:2 898:2 918:1 991:1 1036:6 1060:1 1109:1 1131:1 1145:6 1188:8 1345:1 1441:8 1487:1 1558:2 1583:4 1608:1 1643:1 1672:6 1680:1 1690:5 1707:2 1785:1 1846:1 1896:1 1976:2 2079:2 2164:10 2227:4 2251:1 2328:5 2395:1 2423:5 2444:1 2446:2 2550:1 2596:3 2612:1 2783:2 2876:1 3228:1 3299:1 3513:3 3537:1 3716:6 3724:1 3827:1 3855:2 3908:4 4085:5 4164:1 4199:1 4284:1 4405:1 4430:6 4440:1 4508:2 4513:1 4521:2 4543:3 4670:2 4707:2 4749:1 4782:3 4826:1 4853:3 4977:3 5038:2 5109:1 5212:6 5273:2 5283:2 5527:1 5559:2 5578:1 5636:1 5696:1 5804:3 5811:1 5833:3 5885:2 5895:1 5935:2 5952:1 5989:2 6086:2 6679:1 6699:1 6759:1 6840:1 6873:1 7000:1 7166:1 7196:1 7346:1 7347:1 7628:2 
0.008979786715928305 0.001803947475086941 0 45:2 60:1 175:1 212:1 231:1 242:1 309:1 504:1 661:1 772:1 874:1 1036:2 1145:3 1188:2 1521:1 1545:1 1690:3 1747:1 1847:1 1891:1 1952:1 1981:2 2079:2 2113:1 2164:1 2221:1 2488:1 2634:1 2640:1 2686:2 2750:2 2778:1 2876:1 2885:1 2980:1 2992:1 3055:3 3228:1 3241:1 3437:1 3537:1 3716:2 3762:2 4164:1 4199:1 4230:1 4312:1 4430:2 4521:1 4532:1 4683:2 5053:1 5085:1 5313:1 5387:1 5434:1 6239:1 6430:3 6510:1 6555:1 6815:1 6837:1 7499:1 7628:1 7640:1 7713:1 
0 0 0.005843318186745529 21:1 267:2 350:1 504:2 524:1 577:3 741:1 852:2 919:1 948:1 989:1 1036:2 1188:3 1434:1 1616:1 1925:1 1984:1 2146:3 2193:1 2445:2 2454:1 2537:2 2547:1 2703:1 2709:1 3421:1 3716:2 3771:1 3789:1 3795:4 3889:1 3917:5 4104:1 4164:1 4352:1 4430:3 4513:2 4564:2 4639:1 4666:1 4683:1 4853:1 4976:1 4978:2 5129:1 5203:1 5387:1 5476:1 5480:1 5776:1 5812:1 5818:1 6043:1 6216:1 6338:1 6339:1 6427:1 6430:1 6500:1 6819:1 6837:1 6873:1 6891:2 6968:1 7032:1 7177:1 7239:1 7372:1 7456:1 7518:2 7640:2 7731:1 7738:4 
0 0.05199897938634553 0 594:1 1785:1 1837:1 2612:1 3437:1 3611:3 3650:1 3762:1 3771:2 7640:1 
0.005095009687264745 0 0.00514803529581364 212:2 231:1 342:1 433:1 549:1 577:1 617:1 692:8 772:2 829:1 857:1 988:1 1036:1 1109:1 1145:2 1188:1 1273:1 1287:3 1353:1 1370:1 1611:1 1690:10 1890:2 1917:1 2079:3 2328:2 2512:1 2709:1 2783:1 2891:1 2945:2 2958:2 2980:1 3039:1 3163:1 3279:1 3345:1 3364:1 3513:1 3716:1 3762:1 3789:1 3795:2 3908:1 4230:1 4240:3 4430:1 4523:2 4578:1 4586:1 4667:2 4693:2 4741:1 4853:1 5045:1 5053:1 5104:1 5107:1 5147:1 5149:1 5160:1 5449:1 5804:3 5812:1 5827:1 5941:1 5990:1 6043:1 6103:1 6170:2 6185:1 6314:1 6340:1 6380:1 6430:1 6533:1 6603:1 6653:1 6958:1 7006:2 7028:3 7060:1 7148:2 7347:1 7685:1 7694:1 
0.001760726840142504 0 0.01305797352872344 150:1 198:1 510:1 549:1 557:1 649:1 738:1 856:1 1013:1 1086:1 1120:5 1188:1 1316:1 1345:1 1357:1 1365:1 1434:1 1837:1 1870:1 1894:2 1954:1 2079:1 2256:1 2310:1 2640:1 2709:2 2852:1 2876:3 3103:3 3364:1 3421:1 3429:1 3611:3 3650:2 3762:2 3771:2 4035:3 4165:1 4362:1 4430:2 4431:1 4518:1 4839:1 4917:1 5085:1 5265:2 5396:1 5601:1 5660:2 5869:1 6086:1 6108:1 6285:1 6430:1 6441:1 6682:1 6815:1 6837:3 7266:1 7307:1 7518:3 7534:1 7640:1 7731:1 
0 0 0.007538251967589214 107:1 208:2 430:1 705:2 1036:2 1188:2 1198:1 1531:1 1581:1 1690:1 1761:2 1815:1 1865:1 1914:1 2187:2 2484:1 2652:1 2799:1 2900:1 3098:1 3295:1 3716:2 4430:3 4495:1 4707:1 4743:1 4888:1 4917:1 5177:1 5242:1 5304:1 5534:2 6086:2 6510:1 6770:1 7397:1 7456:1 7607:1 
0 0 0.003457543562445751 266:2 355:2 430:1 469:1 504:3 549:1 558:1 628:1 750:1 768:1 787:1 852:1 1009:1 1036:2 1110:1 1188:4 1606:1 2079:1 2115:1 2146:1 2186:2 2221:1 2361:1 2450:1 2490:1 2505:1 2709:1 2766:1 2799:1 2876:1 2891:1 3122:1 3309:1 3422:1 3716:4 3762:2 3771:3 3841:1 3890:1 3910:1 3944:1 3963:1 3976:1 3999:1 4111:2 4213:1 4313:1 4386:2 4430:3 4513:2 4749:1 4909:1 4972:1 5016:1 5107:2 5222:1 5361:1 5363:1 5547:1 5570:1 5653:1 5990:1 6430:1 6561:1 6655:1 6680:1 6788:1 6797:1 6840:1 6971:1 7239:1 7628:1 7640:1 7728:1 7738:1 
0.007072381561810931 0.05571278212020377 0.0535884743866861 212:4 628:1 692:3 852:1 874:1 919:1 1145:2 1188:3 1264:1 1387:2 1405:1 1524:1 1545:1 1680:1 1690:5 1847:1 1890:1 2054:1 2115:1 2164:1 2181:1 2547:2 2614:2 2697:1 2700:1 2709:2 2741:1 2907:1 3275:1 3367:1 3817:1 4284:1 4302:1 4366:1 4523:1 4888:2 5121:1 5570:1 5806:1 5906:1 6086:1 6103:2 6399:1 6430:1 6555:1 6664:1 6699:1 6837:1 6873:1 6876:3 7104:1 7148:2 7518:1 
0 0.0003937074512609403 0.005175783184854151 2:1 72:1 212:1 261:1 266:1 328:1 577:1 579:1 594:2 700:1 750:1 774:1 919:1 1083:4 1188:4 1274:1 1287:1 1353:2 1437:2 1479:1 1499:1 1578:1 1673:1 1785:1 1844:1 1864:1 1962:1 2113:1 2130:1 2407:1 2697:1 2700:1 2796:1 2878:2 3052:1 3354:2 3425:1 3643:1 3650:1 3716:1 3762:1 3789:1 3795:2 3959:1 4130:1 4230:1 4278:1 4574:1 4689:1 4707:1 4743:1 4888:2 4917:1 5313:1 5493:1 5571:1 5776:1 5845:2 5852:1 6016:2 6024:1 6073:1 6081:1 6085:1 6245:1 6337:1 6338:1 6679:1 6717:1 6859:1 7090:1 7148:2 7457:1 7499:1 7550:1 7640:1 
0.03709045146131021 0 0 350:2 761:1 1145:2 1307:2 1785:1 2030:2 2547:2 2992:2 3048:2 4012:1 4751:2 4813:1 5795:1 5796:1 5895:1 6840:1 7000:1 7347:1 
0 0 0.02711735119309161 207:1 3771:1 4404:1 5533:1 6738:1 7256:2 7402:1 
0.06079198652317534 0 0 263:1 283:1 309:2 558:1 668:1 695:1 889:1 1036:1 1109:1 1145:1 1188:1 1524:1 1680:1 1785:1 1890:1 2164:1 2172:1 2237:1 2531:1 2616:1 2686:2 2819:1 3157:1 3421:1 3716:1 3771:2 3817:1 3959:1 4304:1 4385:1 4430:1 4917:1 4926:2 4952:1 5016:1 5895:1 5951:1 6024:1 6430:3 7252:1 7256:1 
0.001820612407042411 0 0 524:2 692:1 695:2 772:1 850:1 852:1 1036:1 1063:1 1109:1 1145:3 1169:1 1188:1 1434:1 1690:1 1818:1 2038:1 2079:1 2446:6 2557:1 2597:2 2613:1 2783:2 2805:1 2826:1 2863:1 2893:1 2958:1 3034:1 3107:1 3168:1 3213:1 3369:1 3762:3 3929:1 4012:1 4068:1 4164:2 4240:1 4246:1 4266:1 4366:3 4430:2 4440:1 4513:1 4547:1 4831:1 4934:2 5096:1 5263:1 5464:2 5535:1 5626:1 5645:1 5696:1 5811:1 5952:1 6084:3 6355:1 6483:1 6539:1 6648:1 6699:2 6706:1 6923:1 6992:1 6997:1 7193:1 7272:1 7335:1 7578:1 7640:1 7738:2 7762:1 
0.03436228683016752 0 0 24:1 56:3 72:1 208:1 242:1 692:1 761:4 772:1 898:1 1036:2 1042:1 1188:4 1345:1 1434:1 1558:1 1690:3 1749:1 2054:1 2146:1 3057:1 3325:1 3537:1 3716:3 3959:1 4164:1 4227:1 4291:1 4430:6 4513:1 4521:1 4524:1 4601:1 4884:2 4917:1 4965:1 5110:1 5508:2 5602:1 5795:1 5825:2 6050:2 6086:1 6803:1 6840:1 7000:5 7028:1 7553:2 7578:1 7640:1 7763:1 
0.006027210612090648 0.01068340656631764 0.006176120169986487 7:1 56:2 101:1 208:1 212:5 246:1 261:1 291:1 317:1 368:1 374:1 400:1 549:1 609:1 654:1 668:2 750:1 794:1 867:5 874:1 889:1 941:1 942:1 1036:1 1037:1 1042:1 1058:1 1145:3 1188:6 1270:1 1353:1 1366:1 1371:1 1380:1 1437:1 1521:1 1544:1 1569:2 1581:6 1680:18 1766:1 1771:1 1805:1 1830:1 1847:2 1850:1 1890:6 1897:5 1907:1 1914:2 1916:1 1937:2 1953:1 2115:2 2164:2 2172:4 2239:1 2297:1 2323:1 2354:4 2409:2 2436:1 2451:1 2466:1 2505:1 2541:2 2548:1 2578:4 2602:1 2676:1 2709:6 2741:1 2764:1 2798:1 2828:1 2846:1 2902:1 3033:1 3107:1 3121:2 3194:1 3199:1 3237:2 3254:1 3342:3 3520:1 3552:3 3716:3 3762:21 3771:14 3773:4 3782:1 3865:4 3889:3 3890:3 4090:1 4096:1 4131:2 4179:2 4230:1 4255:6 4261:1 4322:1 4334:1 4337:3 4352:1 4430:1 4468:1 4513:1 4516:2 4521:2 4524:1 4553:4 4750:1 4782:5 4827:2 4853:1 4880:1 4887:1 4907:1 4917:1 4926:2 4955:1 4977:1 5004:1 5207:1 5387:1 5406:1 5488:1 5527:1 5576:1 5625:2 5696:2 5812:3 5833:1 5838:2 5941:2 6069:1 6080:1 6086:1 6150:1 6366:1 6430:3 6479:2 6510:2 6517:1 6534:5 6680:2 6699:2 6770:1 6787:1 6844:1 6859:2 6944:7 6997:1 7001:1 7019:1 7028:1 7104:1 7211:1 7285:1 7347:1 7490:1 7506:1 7513:4 7640:1 7643:1 7660:4 7713:3 
0.006521641800853098 0 0 98:1 212:2 609:1 640:2 867:1 1036:2 1145:2 1187:1 1188:2 1198:1 1208:1 1650:1 1680:1 1690:1 1847:1 1870:1 2353:1 2413:2 2505:1 2512:1 2634:1 2888:1 3115:1 3355:1 3548:2 3716:2 4164:2 4200:1 4240:1 4430:1 4513:1 4525:1 5049:1 5504:1 5736:1 5895:1 6539:1 6694:1 6837:2 6840:1 7380:1 7457:1 7499:1 7640:2 7685:1 
0 0.0006636214133377686 0 72:1 107:1 152:3 309:1 311:1 568:1 628:1 803:1 1036:1 1067:3 1145:2 1188:3 1359:2 1387:1 1395:2 1531:4 1581:1 1690:3 1785:1 1891:1 2050:1 2096:1 2146:1 2186:1 2214:2 2221:1 2446:2 2512:1 2574:1 2613:1 2622:1 2686:4 2783:1 2799:1 2905:1 2985:1 2992:1 3087:1 3299:1 3421:1 3537:1 3634:4 3716:2 3762:1 3771:1 3959:1 4029:2 4065:1 4164:1 4227:1 4240:1 4430:4 4431:1 4484:2 4554:1 4653:1 4917:1 5085:1 5109:1 5265:1 5283:1 5508:4 5776:2 5935:1 6086:2 6103:3 6104:2 6150:1 6517:1 6770:1 6837:2 6855:2 7028:1 7360:1 7553:3 7640:1 
0.03660540648573168 0 0 21:1 30:2 256:1 693:1 874:1 901:1 1036:1 1145:2 1188:2 1690:1 1785:1 1837:3 1984:1 2054:1 2146:2 2158:1 3611:2 3650:1 3689:1 3716:1 3762:2 3771:2 3822:1 3902:1 4164:1 4291:1 4430:1 4741:1 4749:1 4888:1 4917:1 5107:1 5265:2 6339:1 6815:1 6840:1 7456:1 
0.01326222163182964 0.00866807963515241 0 204:1 212:1 430:2 599:3 787:1 898:1 1145:2 1188:7 1345:2 1433:1 1434:1 1509:1 1545:2 1690:1 1729:1 1827:2 2115:1 2229:1 2347:1 2427:3 2446:1 2512:3 2547:3 2597:1 2703:1 2814:1 2886:1 2888:1 3087:1 3228:1 3342:2 3536:1 3715:1 3864:2 3908:2 3981:5 4227:1 4249:1 4284:5 4487:2 4522:1 4524:1 4654:3 4658:1 4683:2 4715:1 4737:1 4839:1 4917:2 4943:1 5231:1 5464:1 5480:1 5696:2 6011:1 6084:1 6162:1 6164:1 6339:1 6361:1 6430:1 6492:2 6801:1 6814:1 6831:1 6859:1 6905:3 6926:1 7305:1 7487:1 7578:1 7628:1 7640:1 
0.02086336319183143 0.006838386467045604 0 56:1 152:1 166:1 218:1 430:2 628:1 668:1 991:1 1145:1 1188:2 1289:2 1469:1 1493:1 1545:1 1680:1 1785:1 1804:1 2079:1 2115:2 2613:1 2887:1 3033:2 3141:1 3151:3 3537:1 3716:2 3762:1 3891:1 4164:1 4255:1 4430:2 4513:1 4521:1 4749:1 4853:1 5337:3 5570:1 5895:1 5990:1 6108:1 6322:1 6443:1 6837:1 6840:1 6934:1 6994:1 7003:2 7015:1 7225:1 7685:1 7725:1 
0.08756209925511173 0 0.0069391395810591 60:1 88:1 113:1 242:1 278:1 430:1 504:1 661:1 852:1 867:1 1036:1 1145:1 1188:1 1289:1 1804:1 2050:1 2079:1 2088:1 2164:1 2374:1 2462:1 2743:1 2887:1 2888:1 2992:1 3115:1 3310:1 3716:1 3762:1 3771:1 3891:1 4164:1 4230:3 4430:2 4431:1 4575:1 6108:1 6430:1 6494:2 6510:1 6534:1 6591:1 6837:3 7225:1 7305:1 7594:2 7640:1 
0.01909597527347625 0 0 424:1 942:1 1036:1 1188:3 1680:1 1802:3 1933:1 2076:1 2079:1 2640:1 2709:1 2883:1 3308:1 3429:1 3716:3 3762:3 3771:2 4143:1 4255:2 4430:1 4513:1 4525:2 4890:1 5313:1 5500:1 5776:1 6024:1 6430:1 6680:1 7096:1 7200:1 7518:2 7640:1 
0 0.003228319196741005 0 194:2 212:1 448:1 520:1 558:1 626:1 750:1 919:1 1036:2 1145:1 1160:3 1188:3 1307:2 1353:1 1374:1 1434:4 1581:1 1680:6 1850:1 1890:1 2079:1 2088:2 2192:1 2218:1 2229:1 2444:1 2709:3 2783:3 2796:2 2803:2 2876:1 2888:1 2980:1 2991:2 3716:4 3724:1 3750:1 4164:1 4240:1 4246:1 4255:1 4430:4 4524:1 4554:1 4765:1 4782:1 4845:1 4880:2 4917:1 5016:2 5045:2 5265:2 5313:1 5464:1 5508:2 5601:1 5778:1 5811:1 5845:1 5895:1 5920:1 6086:1 6164:2 6430:2 6710:1 7032:1 7044:2 7143:1 7325:2 7640:1 7753:1 
0.0006025780709946715 0.002235239860255337 0 152:1 212:1 558:1 661:1 820:1 1145:1 1188:3 1272:1 1274:1 1390:1 1616:1 1680:1 1891:1 1932:1 1953:1 2076:1 2079:1 2512:1 2530:2 2537:1 2709:1 2891:1 3227:1 3275:1 3321:1 3437:1 3477:2 3505:1 3568:1 3668:1 3712:1 3716:1 3762:3 3771:2 3773:1 3795:1 3964:1 3981:1 4164:1 4199:1 4230:1 4430:1 4483:1 4524:2 4614:1 4849:1 4887:1 4917:1 5436:1 5632:1 5725:1 5776:1 5869:1 5895:1 5935:2 5990:1 5996:1 6081:1 6108:1 6150:1 6245:1 6361:1 6781:1 6837:1 6842:1 7026:1 7713:1 
0.0304511878732372 0.0218087177726974 0.03634776915063036 640:1 832:1 1042:1 1493:1 1865:1 2127:1 2172:1 2748:1 2803:2 2819:1 3762:1 3771:1 4200:1 4230:1 4633:1 5128:1 5449:1 5915:1 5943:1 6147:1 6229:1 6241:1 6430:1 6679:1 6680:1 6847:1 7643:1 
0.01859210251299382 0 0 212:1 577:1 874:1 1109:1 1145:1 1188:2 1273:1 1434:1 1865:1 2079:1 2462:1 2620:1 2655:1 2709:1 2751:1 2783:1 2805:1 2863:1 2980:1 3024:1 3650:1 3716:1 3795:2 4405:1 4430:2 4666:1 4732:1 4741:1 4990:1 5067:1 5109:1 5449:1 5895:1 5901:1 5990:1 6113:1 6380:1 6430:1 6840:1 7487:1 7601:2 7640:1 7738:1 
0 0 0.01254422221452331 198:1 203:1 212:1 247:1 331:1 430:2 504:1 594:1 919:1 1036:1 1188:2 1387:1 1433:1 1437:1 1469:1 1690:1 1921:1 2036:1 2079:1 2419:1 2430:1 2446:1 2611:1 2798:1 2805:1 2819:1 2876:1 3009:1 3269:1 3374:1 3437:1 3716:1 3814:1 3832:1 3864:1 4003:1 4199:1 4227:1 4261:1 4350:1 4602:1 4839:1 5085:1 5092:1 5224:1 5673:1 6317:1 6430:1 6767:1 6836:2 6909:1 6992:1 7039:1 7169:1 7640:1 7713:1 7738:1 
0.000611446626984416 0 0 2:1 72:1 107:1 113:1 212:1 218:4 388:1 405:1 430:1 449:1 482:1 504:2 534:1 549:1 668:3 724:1 852:1 867:1 889:2 898:2 907:1 923:1 1006:1 1009:1 1036:2 1048:1 1067:1 1109:1 1131:1 1145:3 1188:6 1283:1 1305:1 1387:1 1397:1 1434:1 1437:1 1469:4 1524:1 1567:1 1622:1 1643:1 1650:1 1690:2 1776:1 1890:2 1897:1 1959:1 1974:1 1984:1 2054:1 2079:1 2080:1 2115:1 2150:1 2164:2 2264:1 2383:1 2388:1 2395:1 2409:1 2462:2 2484:1 2513:5 2596:2 2640:2 2803:1 2839:1 2876:1 2888:1 2894:1 3142:1 3217:1 3247:1 3275:3 3354:2 3415:2 3421:1 3469:1 3505:1 3523:2 3606:1 3686:1 3716:3 3725:1 3757:1 3762:2 3771:1 3773:1 3889:1 3999:1 4225:1 4261:1 4267:1 4385:1 4418:1 4430:2 4441:1 4495:1 4500:1 4509:1 4518:1 4521:1 4553:1 4582:1 4739:1 4775:1 4837:1 4839:1 4852:1 4888:1 4917:1 4926:2 4941:1 5016:1 5090:2 5109:1 5111:1 5129:1 5228:1 5231:1 5265:1 5283:1 5404:1 5411:1 5427:1 5436:1 5500:1 5608:1 5704:1 5719:2 5776:2 5853:1 5902:1 5983:1 5990:1 6024:1 6171:1 6174:1 6310:1 6338:1 6534:1 6555:1 6580:1 6679:1 6815:2 6944:1 6948:1 7003:2 7097:1 7109:1 7211:1 7225:1 7324:1 7335:1 7487:1 7490:1 7527:1 7590:1 7607:1 7628:1 7713:1 7744:1 
0.01025670603577218 0.004201247234982986 0 10:3 198:1 208:2 212:1 236:1 563:1 599:1 628:1 738:1 755:1 784:2 919:1 994:1 1013:2 1017:3 1036:2 1040:1 1145:3 1188:8 1449:1 1469:1 1493:1 1581:2 1704:1 1729:1 2348:1 2523:1 2547:2 2566:1 2614:1 2724:1 2819:1 2938:3 2992:1 3086:1 3087:2 3228:4 3716:3 3817:1 3869:1 4096:1 4164:4 4302:1 4304:1 4430:2 4553:1 4666:1 4849:2 4888:1 5055:1 5160:2 5236:1 5337:2 5825:1 5871:1 5976:1 6086:2 6109:2 6186:1 6234:1 6483:1 6555:1 6634:1 6699:2 6837:4 6934:1 7003:3 7131:1 7225:1 7290:8 7346:1 
0 0 0.01439850974147575 218:2 362:1 1036:2 1188:2 1404:1 1981:1 2251:1 3686:1 3716:2 3762:1 3959:1 4430:2 5085:1 5853:1 5902:1 6430:1 6865:1 7640:1 
0.007682421270540122 0 0 107:1 166:3 194:2 208:1 264:1 318:1 435:1 457:1 504:1 628:2 654:1 682:1 723:1 867:1 1012:1 1017:1 1036:1 1066:1 1067:5 1141:1 1145:3 1188:3 1303:1 1345:2 1395:2 1495:1 1556:1 1606:2 1618:2 1672:2 1690:2 1837:8 1929:1 1959:1 1995:1 2079:2 2096:4 2134:1 2146:1 2164:1 2186:1 2374:3 2376:2 2395:3 2512:1 2513:10 2530:2 2549:1 2673:1 2721:1 2826:1 2836:1 2888:2 2900:1 2905:1 2978:1 2980:1 3037:1 3066:1 3087:2 3210:4 3228:1 3335:1 3354:1 3374:1 3537:1 3583:1 3650:1 3678:1 3716:1 3762:3 3768:1 3771:2 3781:1 3942:1 4028:1 4065:2 4164:3 4240:2 4261:1 4284:1 4300:1 4302:2 4322:1 4364:1 4430:3 4463:1 4483:1 4554:1 4573:1 4644:1 4655:1 4707:2 4782:1 4917:3 5107:1 5177:1 5203:1 5273:1 5313:1 5436:1 5441:1 5451:1 5488:1 5508:1 5569:4 5625:1 5697:1 5825:2 5870:1 6086:1 6104:6 6108:1 6430:1 6483:1 6549:1 6648:1 6708:1 6710:1 6738:1 6809:1 6837:10 6840:2 6859:2 6905:3 6908:1 6944:1 6968:1 7001:1 7137:1 7166:1 7225:1 7226:2 7347:1 7437:1 7487:1 7520:1 7553:2 7667:4 7712:1 7713:2 7765:1 
8.597622934908697e-05 0 0 101:1 212:1 283:1 365:1 504:1 571:1 803:1 919:2 1036:1 1141:1 1188:1 1345:1 1554:1 2347:1 2353:1 2446:1 2512:1 2547:1 2744:1 2980:1 2991:1 3267:1 3354:1 3428:1 3454:1 3678:1 3716:1 3762:1 3890:1 4085:2 4148:1 4155:3 4188:2 4430:1 4631:1 4720:1 4917:1 4926:1 5004:1 5129:1 5237:1 5552:1 5744:1 5776:2 6108:1 6280:1 6430:2 6692:1 6815:1 6884:2 7542:1 7569:1 
0 0 0.02571203371269089 309:1 504:1 750:1 884:2 903:1 1036:2 1163:1 1188:2 1283:1 1287:3 1747:1 1785:1 1891:2 2115:1 2146:2 2686:4 3716:2 3762:1 4430:2 4749:1 4777:2 4888:1 5107:1 5895:1 6339:1 7003:1 7640:1 7687:1 
0 0 0.01603266774122205 1856:1 3762:1 3771:1 
0 0.007693216112754886 0.01565853530021855 95:3 131:1 687:4 705:1 1013:4 1036:1 1120:1 1188:6 1434:3 1469:1 1512:1 1548:1 1654:1 1865:1 1888:1 1890:1 1924:1 1984:2 2115:5 2146:2 2341:1 2348:7 2383:1 2419:1 2614:1 2753:1 2836:1 2839:1 2891:1 2897:1 2982:1 3201:1 3354:1 3437:1 3689:2 3716:4 4035:4 4161:1 4219:1 4240:1 4302:2 4430:3 4513:1 4674:1 4741:2 4813:1 5058:2 5138:2 5250:1 5306:1 5449:2 5570:1 5696:3 5971:1 5990:2 6150:1 6174:1 6218:2 6257:1 6339:2 6407:1 6430:1 6637:3 6664:1 6817:3 6831:1 6839:2 6873:1 6934:1 6935:2 6953:2 6997:3 7003:1 7250:1 7418:1 7518:1 7640:1 7731:1 
0 0.003972602594805319 0 72:1 175:1 198:1 212:2 231:2 358:1 707:2 837:1 874:1 919:2 1017:1 1145:1 1188:1 1387:1 1583:1 1660:1 1690:2 2079:3 2164:1 2240:1 2446:1 2824:1 3087:1 3107:1 3716:1 4284:1 4430:1 4513:1 4524:1 4782:2 4823:1 4839:1 4877:1 5053:2 5109:3 5202:1 5435:1 5553:1 5579:1 5760:1 6048:1 6103:1 6109:1 6150:1 6153:1 6356:1 6380:1 6555:1 6770:1 6873:1 7035:1 7455:1 7549:1 7640:2 7642:1 7649:1 7651:1 
0.01486536887351687 0 0 152:1 1785:1 2241:1 2467:2 3699:1 3716:1 4142:2 4430:1 5085:1 5441:1 5472:1 5895:1 6940:1 7011:1 7335:1 
0.06013066001379053 0 0 6:1 212:1 242:4 408:1 448:1 637:1 661:1 1036:1 1090:1 1145:1 1163:2 1166:1 1188:1 1217:3 1479:1 1583:1 1657:1 1672:1 1888:1 2079:4 2328:1 2448:1 2655:1 2660:1 2683:2 2819:1 2979:1 3236:1 3560:1 3578:2 3658:1 3716:1 3865:1 3890:1 4117:1 4164:1 4366:2 4430:1 4513:1 4521:1 4668:1 4853:1 4888:1 4903:4 4917:1 4954:2 4962:1 5044:1 5062:3 5092:1 5129:2 5409:1 5755:1 5776:2 5903:1 5935:1 6384:1 6404:1 6737:1 7002:1 7003:1 7225:1 7427:1 7607:1 7628:1 7640:1 
0 0.007110705843675054 0.0008416502176648013 283:1 326:1 407:2 448:1 526:1 566:1 633:1 751:1 890:1 1017:1 1020:1 1025:1 1090:1 1145:1 1188:2 1227:1 1295:1 1365:1 1424:1 1545:1 1581:8 1680:1 1690:1 1804:2 1820:1 1842:1 1959:1 2079:3 2131:1 2317:1 2446:2 2512:1 2552:1 2680:1 2731:1 2783:1 2796:1 2801:1 3087:1 3562:1 3668:1 3716:1 4165:1 4200:1 4240:2 4304:1 4366:1 4447:1 4513:1 4535:1 4972:1 4986:1 5092:1 5138:2 5194:1 5313:1 5414:1 5732:1 5847:2 6024:4 6371:1 6399:1 6452:1 6534:1 6555:1 6616:2 6653:1 6699:1 6873:2 6884:1 6945:8 7200:1 7322:1 7518:1 7591:1 7607:2 7640:1 7694:1 7753:1 
0 0.006535583091505683 0 72:1 212:3 362:1 486:1 638:1 868:1 1036:1 1145:2 1188:4 1291:1 1434:2 1493:1 1516:1 1696:1 1771:1 1785:2 2108:1 2113:1 2115:2 2146:2 2164:1 2244:1 2347:1 2505:1 2618:1 2966:1 2980:1 3087:1 3217:1 3473:1 3518:1 3548:4 3678:1 3716:2 3762:3 3771:2 3863:1 4430:1 4513:1 4625:1 4743:1 4965:1 4977:4 5049:2 5090:1 5387:1 5589:1 6150:1 6257:1 6309:1 6510:1 6840:1 6940:1 6944:1 6964:1 7148:1 7225:2 7298:1 7347:1 7380:2 7628:1 7640:2 
0.001839610563734035 0.009425200384094177 0 143:1 211:1 212:2 231:2 275:2 340:1 417:1 448:1 621:1 628:3 644:2 695:2 761:4 818:1 846:1 874:2 908:1 954:1 967:1 1020:1 1036:1 1145:6 1188:2 1213:1 1244:1 1307:2 1335:1 1461:1 1521:1 1545:2 1581:2 1613:1 1622:2 1672:1 1690:4 1738:3 1752:1 1778:1 1892:1 1912:1 2054:1 2217:1 2251:2 2296:3 2328:1 2395:3 2484:2 2491:1 2512:2 2596:1 2613:1 2673:2 2709:1 2711:1 3028:2 3058:1 3087:1 3192:1 3228:1 3421:1 3537:2 3550:1 3716:2 3762:1 3822:1 3918:2 3959:1 3978:1 4164:2 4430:2 4481:1 4518:2 4521:1 4660:1 4707:1 4749:1 4754:1 4763:1 4782:3 4901:1 4917:4 4945:1 5053:1 5107:1 5110:1 5129:1 5283:1 5296:2 5316:1 5353:3 5372:1 5466:2 5500:2 5776:2 5795:2 5841:2 5853:1 5935:1 5986:5 6048:2 6103:3 6109:1 6246:4 6361:1 6430:3 6517:1 6541:1 6612:1 6840:1 6865:1 6884:1 6905:2 6959:1 7000:2 7031:1 7164:1 7197:2 7225:1 7286:1 7487:1 
0.003884256158011075 0.006502380164242332 0 152:1 208:1 249:1 284:1 430:1 504:2 524:1 558:1 573:1 577:1 654:1 749:1 755:1 766:3 867:1 898:1 899:1 942:1 991:1 1004:1 1036:1 1042:3 1109:1 1140:3 1145:5 1188:3 1244:2 1307:1 1346:1 1423:1 1608:1 1690:2 1708:1 1729:1 1775:1 1846:1 1959:1 1964:1 2096:1 2118:1 2167:8 2192:1 2314:1 2394:1 2395:4 2444:2 2512:2 2522:1 2599:1 2628:1 2753:3 2796:1 2803:3 2839:1 2871:1 2928:1 3053:1 3086:2 3087:6 3160:1 3279:4 3343:1 3466:11 3526:1 3537:1 3639:1 3716:3 3762:2 3817:1 3847:2 3942:1 3959:1 4189:1 4236:1 4240:1 4261:3 4304:1 4322:4 4430:3 4446:1 4447:1 4513:1 4543:2 4553:1 4554:4 4848:1 4926:1 5090:1 5107:1 5168:2 5177:1 5191:1 5353:2 5377:1 5508:6 5601:5 5676:1 5696:2 5704:1 5776:1 5825:1 5833:2 5885:1 6086:1 6087:1 6109:2 6430:11 6447:6 6500:1 6534:1 6618:1 6664:5 6693:1 6737:1 6791:5 6798:1 6815:1 6840:1 6905:4 6912:1 7193:1 7225:1 7307:2 7315:1 7333:1 7335:1 7362:3 7487:1 7534:2 7570:1 7578:1 7712:1 
0.004114629095158552 0 0 107:1 211:2 284:2 303:2 492:3 493:1 504:2 525:1 558:1 668:1 695:1 774:1 868:1 898:2 991:1 1036:2 1145:2 1163:1 1188:8 1323:1 1353:1 1357:1 1418:1 1434:1 1544:1 1690:10 1785:1 1924:1 1932:1 1964:1 2114:1 2125:1 2146:1 2164:2 2227:1 2347:1 2395:1 2437:2 2446:1 2484:1 2504:1 2505:2 2543:1 2550:3 2572:1 2613:1 2668:1 2836:2 2888:1 3034:9 3076:1 3293:1 3298:3 3299:1 3325:2 3369:1 3386:1 3436:1 3548:3 3590:6 3630:1 3639:1 3716:4 3727:1 3782:1 3841:1 4164:2 4220:1 4261:1 4409:1 4430:2 4508:1 4558:1 4573:1 4679:1 4707:2 4763:1 4917:1 4969:2 5049:2 5085:1 5109:2 5177:1 5330:5 5401:1 5504:1 5804:1 5918:6 5952:1 6122:2 6296:1 6380:1 6430:3 6591:6 6676:6 6788:2 6859:1 6873:1 6884:1 6905:3 7347:1 7510:4 
0 0.0005620448234777479 0 101:1 107:2 152:1 208:1 212:1 231:1 240:1 247:15 257:2 262:1 263:3 343:1 372:2 388:1 407:2 430:4 448:1 454:1 504:1 525:1 536:1 549:2 582:2 594:1 654:3 723:1 750:1 755:1 772:4 774:18 851:1 852:2 874:2 885:1 891:2 893:5 898:1 919:1 991:1 1082:1 1097:2 1135:2 1145:7 1173:1 1188:9 1198:2 1207:1 1210:1 1323:1 1338:1 1356:2 1377:2 1387:3 1405:1 1410:5 1429:1 1432:1 1433:3 1434:2 1497:1 1521:1 1523:17 1545:5 1558:1 1566:1 1581:4 1583:1 1622:2 1624:2 1630:1 1643:3 1680:13 1690:7 1695:1 1700:2 1706:1 1741:1 1759:1 1816:1 1827:5 1870:1 1890:4 1932:1 1965:1 2009:1 2054:1 2071:4 2079:2 2165:2 2186:1 2221:4 2251:1 2281:4 2344:2 2347:1 2353:1 2362:1 2364:4 2395:8 2409:2 2462:1 2468:1 2500:1 2548:1 2596:8 2617:1 2620:2 2634:1 2670:1 2683:1 2709:17 2720:1 2783:2 2832:2 2863:1 2865:1 2905:2 2980:1 3033:1 3048:1 3067:3 3087:9 3098:2 3107:1 3162:1 3231:1 3299:5 3301:2 3342:4 3343:1 3369:1 3399:2 3412:2 3419:1 3428:1 3458:1 3472:3 3537:1 3548:2 3619:1 3643:2 3716:5 3762:2 3771:1 3772:1 3773:1 3795:2 3804:1 3827:1 3864:18 3865:1 3905:1 3938:1 3952:1 3964:1 4083:1 4164:2 4195:2 4199:1 4240:2 4255:1 4261:9 4302:5 4389:2 4399:1 4409:1 4430:5 4440:2 4467:1 4483:1 4513:7 4521:2 4524:3 4547:1 4564:3 4568:1 4707:2 4720:2 4737:1 4763:3 4874:1 4917:2 4918:2 4926:3 4955:2 4981:1 4990:2 5088:2 5090:1 5101:1 5102:7 5103:1 5122:1 5177:2 5201:1 5205:1 5313:1 5314:1 5361:1 5412:4 5414:1 5493:1 5495:1 5500:1 5535:1 5543:4 5594:1 5631:1 5660:1 5684:1 5687:1 5696:6 5736:1 5776:1 5835:1 5845:1 5852:1 5952:1 5990:1 6003:2 6024:2 6031:1 6043:1 6051:1 6061:2 6086:2 6089:2 6107:1 6109:1 6113:1 6145:3 6146:2 6158:2 6211:1 6247:1 6306:1 6343:1 6352:3 6430:10 6443:1 6494:1 6496:1 6510:4 6628:1 6653:1 6689:2 6694:2 6699:1 6740:1 6815:1 6859:2 6873:1 6905:2 6909:2 6936:5 6944:2 6969:1 6977:1 7001:1 7052:1 7057:1 7103:1 7109:3 7184:1 7189:1 7196:2 7211:1 7219:2 7222:10 7226:1 7239:1 7261:3 7276:1 7284:1 7305:2 7347:2 7359:2 7393:1 7423:1 7456:2 7578:4 7580:8 7607:11 7628:5 7640:12 7673:1 7692:1 7706:1 7738:1 7753:3 
0.01642797959346496 0 0 403:1 430:1 532:1 668:2 1161:1 1188:2 1289:2 1434:1 1718:2 1804:1 2054:1 2056:1 2164:1 3421:1 3716:2 3891:1 4236:1 4430:2 4524:1 5337:3 5493:1 6840:1 7346:1 7499:1 7754:2 
0.01084202437477965 0 0 175:2 198:1 212:1 303:2 348:1 358:1 450:1 549:1 661:1 746:1 803:2 867:1 951:1 1020:3 1109:1 1127:1 1188:3 1345:1 1583:1 1690:1 1890:2 1938:1 2035:1 2044:1 2146:2 2164:4 2181:1 2257:1 2348:1 2400:1 2462:1 2485:1 2488:1 2573:1 2576:1 2613:1 2709:3 2796:2 2803:1 3531:1 3581:2 3716:3 3724:2 3762:1 3771:1 3966:1 4179:1 4237:1 4255:1 4366:5 4430:2 4494:2 4513:1 4518:1 4637:1 4677:1 4732:1 4749:1 4782:2 4787:1 4926:1 5067:2 5109:1 5623:1 5696:3 5776:1 5804:2 5888:1 5935:1 5954:3 6103:1 6122:2 6164:1 6235:1 6301:1 6396:1 6410:1 6448:1 6483:3 6492:1 6534:1 6555:2 6634:1 6653:1 6706:2 6837:1 6840:1 6873:2 6880:1 6936:1 7003:1 7159:1 7254:2 7338:1 7640:1 7719:1 
0 0 0.001877648892459133 152:2 170:1 176:1 198:1 212:1 231:1 242:1 243:1 331:1 400:1 430:1 504:4 558:1 594:1 599:2 621:1 626:1 628:2 654:2 658:1 692:1 697:1 852:1 907:1 1020:1 1188:2 1233:1 1287:1 1467:1 1543:2 1554:1 1583:1 1671:1 1680:3 1690:1 1734:1 1737:1 1870:1 1906:1 2007:1 2045:1 2054:1 2079:3 2115:2 2131:1 2186:1 2193:1 2409:1 2454:1 2461:6 2537:1 2547:1 2709:1 2876:1 2891:1 2991:1 3086:1 3113:1 3217:1 3275:1 3321:1 3368:1 3468:1 3716:2 3762:2 3771:1 3831:1 3848:1 3959:1 3981:1 4155:1 4164:1 4188:2 4189:1 4257:1 4302:1 4324:1 4359:1 4405:1 4430:2 4484:1 4513:1 4524:2 4525:1 4739:1 4853:1 4959:1 5045:1 5053:1 5067:1 5092:2 5103:2 5231:1 5253:1 5313:1 5446:1 5812:1 5852:1 5895:2 5920:1 5941:1 5988:1 6003:1 6069:1 6245:1 6265:1 6339:2 6380:1 6585:1 6623:1 6679:1 6683:2 6699:2 6837:4 6840:1 6873:1 6887:1 7015:1 7017:1 7148:1 7239:1 7321:1 7359:1 7393:1 7518:1 7550:1 7643:1 
0 0.0003851483238266292 0 212:1 1008:1 1145:2 1188:1 1434:1 1443:1 3716:1 3762:1 3771:1 4164:1 4430:1 4477:2 4524:1 5324:1 6108:1 6150:1 7071:1 7456:2 7640:1 
0 0 0.01584367799565243 7:2 98:1 212:3 258:1 444:1 485:1 1036:1 1044:3 1109:1 1113:1 1188:1 1194:2 1217:1 1345:1 1434:1 1437:3 1583:1 1661:2 1720:1 1726:1 1775:1 1780:1 1890:1 2079:3 2146:1 2328:1 2385:1 2670:3 2733:1 2836:1 2883:1 2888:1 2916:4 2980:1 3070:1 3086:1 3092:1 3103:1 3321:1 3354:1 3419:1 3562:2 3578:1 3614:2 3716:2 3749:1 3762:1 3818:5 3844:1 4065:1 4521:1 4524:2 4651:1 4666:1 4818:1 4844:1 5236:1 5244:1 5265:1 5328:1 5451:2 5493:1 5570:2 5586:1 5633:1 5692:1 5776:1 5845:1 5895:1 5998:3 6265:1 6395:1 6591:1 6655:2 6873:1 6884:1 7126:1 7178:2 7310:1 7336:1 7674:1 
0.02565424170421894 0 0 198:1 208:1 242:1 448:1 558:1 692:1 1036:2 1109:1 1142:1 1145:2 1188:5 1198:1 1558:1 1583:1 1785:1 1865:3 1927:1 1950:1 2045:1 2115:1 2164:1 2227:1 2385:1 2451:1 2783:1 2796:1 2824:1 2888:2 3273:1 3537:1 3716:3 3762:1 3771:1 3831:1 4015:1 4164:2 4200:1 4430:2 4500:1 4525:1 4570:1 5109:1 5313:1 5757:1 5804:1 6086:1 6840:1 6865:1 6986:1 7456:1 7628:1 7640:1 
0 0 0.005982127274977669 218:1 504:1 568:1 991:1 1036:1 1188:1 1690:2 2335:1 2750:1 2839:1 3537:1 3716:1 3762:1 3771:1 3959:1 4085:1 4164:1 4430:1 4525:1 4839:1 4966:1 5109:1 5231:1 5704:1 5852:1 6016:1 6171:1 6234:1 6380:1 6494:1 6561:1 6653:1 6822:3 7234:1 7239:2 
0 0.01053990711622992 0.001152205749075013 63:1 212:1 283:1 549:1 594:1 741:1 989:1 1067:1 1145:2 1188:5 1370:1 1434:2 1469:1 1493:1 1606:1 1690:2 1755:2 1775:1 1803:3 1873:1 1890:2 2115:3 2146:1 2172:1 2547:2 2587:1 2635:1 2640:3 2751:1 2819:1 2894:1 2916:3 3087:1 3228:1 3598:1 3762:3 3771:3 3817:1 3824:1 3970:1 3981:1 4095:1 4164:1 4182:1 4255:1 4304:1 4332:1 4413:1 4513:1 4521:1 4654:1 4888:1 4926:2 4965:1 5313:1 5357:1 5363:1 5697:1 5850:1 6169:2 6452:1 7032:1 7211:3 7391:1 7499:1 7518:2 7640:1 7660:1 7731:1 7738:1 
0.08913582088261617 0 0 668:1 705:1 898:1 899:2 997:1 1036:1 1145:3 1163:1 1188:4 1353:1 1514:2 1581:1 1865:2 2285:1 2409:1 2484:2 2614:1 2980:1 3716:1 4096:1 4124:1 4164:1 4230:2 4430:1 4463:1 4489:1 4513:1 4521:1 4749:1 4888:1 5508:1 6430:1 6510:2 6570:1 6710:1 7003:1 7189:1 7456:1 
0.03357661032238692 0 0 750:1 1036:1 1145:1 1188:1 1253:1 2123:1 2146:1 2836:1 3466:1 3716:1 3724:1 3959:1 4430:1 4543:1 4749:1 5508:1 5696:1 5833:2 5885:1 5895:1 6081:1 6430:1 6983:1 
0.006477347523505048 0 0 152:1 331:1 508:1 628:1 1036:1 1067:1 1145:3 1188:2 1307:1 1353:2 1394:1 1395:1 1434:2 1514:2 1545:1 1581:2 1785:1 1846:1 2262:1 2409:1 2446:1 3087:1 3466:1 3612:1 3716:1 3724:1 4011:1 4065:1 4164:1 4227:1 4230:2 4255:1 4302:2 4405:1 4430:1 4440:1 4513:2 4543:1 4547:1 4554:1 4741:1 4749:1 4917:1 5085:1 5508:1 5601:1 5696:1 5833:2 5885:1 5895:1 5952:1 6104:1 6430:1 6680:1 6808:1 6840:1 6859:1 7028:1 7510:1 7553:1 7571:1 
0.004272009459015962 0.006730031207162477 0 65:1 106:1 331:1 433:1 723:1 750:2 968:2 1036:1 1109:2 1145:1 1188:2 1479:1 1583:2 1785:1 1870:1 1890:1 2079:1 2115:1 2207:1 2328:3 2640:1 2679:1 2683:2 2709:1 2991:1 3079:1 3087:1 3415:2 3598:1 3716:1 3762:1 3771:1 3827:1 4065:1 4085:1 4209:1 4430:1 4524:1 4564:1 4582:1 4601:1 4733:1 4978:1 5002:1 5044:1 5092:1 5230:1 5453:1 5725:1 5776:1 5895:1 6150:1 6215:2 6637:1 6648:1 6762:1 6788:1 6801:1 6831:1 6837:1 6859:1 6868:1 7066:1 7094:1 7347:1 7640:1 7724:2 7738:1 
0 0 0.002385338833482947 65:1 73:1 186:1 231:1 312:1 315:1 397:1 430:1 464:1 588:1 594:1 597:1 692:3 761:3 786:1 818:1 874:1 904:2 970:1 1036:1 1081:1 1109:3 1125:1 1145:2 1166:2 1188:3 1244:1 1307:1 1387:2 1434:1 1659:1 1690:5 1785:1 1851:1 2064:1 2126:1 2146:1 2164:3 2328:4 2335:1 2394:2 2446:1 2484:1 2512:1 2527:4 2566:1 2640:1 2731:1 2783:1 2887:1 2888:1 3083:1 3335:1 3338:1 3354:1 3384:1 3558:1 3584:1 3662:1 3716:3 3818:1 3849:1 4164:1 4240:1 4302:1 4337:1 4404:1 4502:1 4508:3 4693:1 4749:1 4839:2 4853:1 4888:2 4926:1 4966:2 5090:1 5109:2 5110:1 5217:1 5570:1 5625:1 5642:1 5795:1 5830:1 5840:1 5853:1 5854:1 5935:3 5990:1 6024:3 6043:1 6081:1 6338:1 6340:1 6380:2 6462:1 6524:1 6555:1 6682:1 6884:2 6944:1 7054:1 7066:1 7333:1 7499:1 7578:1 7661:2 
0.4887124016511729 0.4101909323031627 0.4523057683318976 1616:1 2023:1 3762:1 3771:1 
0 0 0.04204625304070811 626:1 627:1 1775:2 2700:1 2839:1 3420:1 3762:1 6245:1 
0.01931312983494482 0 0 
0.007870344151476657 0.0006771009267898828 0 208:1 712:1 1036:1 1067:1 1145:1 1188:1 1493:1 1680:1 1890:1 1897:1 2074:2 2290:1 2484:1 2512:1 2697:1 2803:1 2819:1 2980:1 2992:1 3226:1 3321:1 3425:1 3515:1 3716:1 3762:2 3771:1 4164:1 4195:1 4430:2 4524:1 4564:2 4782:1 5045:1 5085:1 6086:1 6160:1 6245:1 6430:3 6979:1 
0.01745929822604281 0 0 43:1 103:1 107:1 108:1 152:1 166:2 208:1 236:1 433:1 631:1 673:1 772:1 1017:1 1036:1 1067:7 1090:1 1109:1 1188:1 1395:1 1425:1 1535:1 1581:3 1656:1 1657:1 1681:1 1690:2 1740:1 1959:3 2079:1 2096:1 2164:2 2229:1 2395:2 2596:1 2762:1 2772:1 3098:1 3275:3 3299:1 3412:1 3473:3 3716:1 3829:1 3871:1 4324:1 4430:1 4520:2 4543:1 4547:1 4558:1 4888:1 4890:1 5029:1 5257:1 5266:1 5313:1 5382:1 5464:1 5508:1 5618:1 5645:1 5697:3 5806:1 5833:1 5976:1 6086:1 6430:2 6432:1 6555:1 6618:1 6655:1 6781:1 6873:1 6884:1 6905:2 6976:1 7126:1 7335:2 
0.01173290152541415 0 0 1036:1 1149:2 1188:3 1307:1 1888:1 1964:1 2980:1 3716:3 3942:1 4430:3 4524:1 4931:4 5895:1 6108:1 6591:1 6817:2 6997:1 7347:1 7487:1 7753:1 
0 0.006770547043675443 0 212:1 331:1 374:1 379:1 381:1 448:2 668:1 692:1 759:1 761:4 818:1 881:1 1036:1 1067:1 1145:2 1180:1 1188:5 1250:1 1254:2 1581:1 1583:3 1690:1 1761:1 1847:1 1890:1 2149:1 2221:1 2328:2 3033:1 3109:1 3441:1 3684:1 3716:4 3762:2 4085:1 4134:1 4164:1 4179:1 4236:1 4331:2 4430:1 4482:1 4502:1 4570:1 4749:1 4799:1 4917:1 5110:1 5125:1 5313:1 5332:1 5399:1 5795:1 5822:1 5845:4 5853:1 5935:2 5941:1 5990:1 6024:1 6051:1 6103:1 6133:1 6338:1 6354:1 6361:1 6430:1 6510:1 6837:1 6887:1 7000:1 7050:1 7359:1 7518:1 7598:1 7640:2 7704:1 
0 0.01170764240472101 0 73:1 212:1 504:1 692:1 1036:1 1145:1 1188:1 1353:1 1434:1 1437:1 1439:1 1499:1 1620:1 1690:2 2106:1 2183:1 2203:1 2229:1 2328:1 2409:1 2676:2 3537:1 3692:1 3716:1 3762:1 3815:1 3889:1 4142:2 4332:1 4352:1 4413:1 4430:1 4568:4 4839:1 4917:1 4926:1 5204:1 6345:1 6430:2 7456:1 7499:1 7640:1 7658:3 
0 0 0.02746118444042864 919:1 1036:1 3762:3 3771:3 3834:1 5265:1 
0 0.001122737711342768 0.01716910321947663 212:2 300:1 475:1 661:1 852:2 1058:1 1188:4 1345:1 1469:1 1479:2 1680:1 1690:1 1870:1 2021:1 2172:2 2444:1 2456:1 2470:2 2614:1 2783:1 3009:2 3075:1 3360:1 3478:2 3715:1 3716:2 3817:1 3865:1 3973:1 3975:1 3999:1 4006:1 4007:1 4142:1 4274:1 4304:1 4750:1 4761:1 4763:1 5138:1 5623:1 5812:1 5845:1 6452:2 6837:1 6873:2 7200:1 7201:1 7640:1 
0.01479075353953845 0 0.01221017112403431 596:1 628:1 1036:1 1188:2 1198:2 1467:1 1479:1 1569:1 1657:1 1711:1 2186:1 2196:1 2385:1 2421:1 2451:1 2505:1 2578:1 2683:1 2887:1 2894:1 3103:2 3228:1 3363:1 3472:1 3548:1 3716:1 3762:2 3771:2 3832:1 4085:1 4096:1 4430:1 4508:1 4582:1 4668:1 4839:1 4952:1 5032:1 5049:1 5743:1 6086:2 6479:1 6664:2 6676:1 6679:1 6786:1 7002:1 7211:1 7518:1 
0.00195689136354628 0 0 65:1 212:1 286:1 407:1 524:1 536:1 549:3 761:2 818:1 1036:2 1161:1 1188:4 1215:1 1316:1 1353:1 1453:1 1640:1 1690:2 1770:1 1785:1 1875:1 1891:1 2079:1 2080:1 2139:1 2328:1 2446:1 2555:1 2676:1 2980:1 2988:1 3182:3 3276:1 3716:3 3762:1 3822:1 3880:1 4131:1 4154:1 4192:1 4291:1 4430:3 4440:1 4495:1 4513:1 4570:1 4853:1 5092:1 5109:1 5110:1 5626:1 5795:2 5799:1 5853:1 5952:1 6071:1 6081:1 6194:1 6404:1 6430:1 6699:1 6909:1 6934:1 7087:1 7580:1 7628:1 7640:1 7738:1 
0 0.00665470151894232 0 52:1 243:1 306:1 331:1 697:1 889:1 907:1 1145:2 1434:1 1485:1 1890:1 2079:1 2676:1 2697:1 3437:1 3481:1 3730:1 3762:3 3771:1 3795:1 3952:1 4096:1 4463:1 4554:1 4568:2 4617:3 4638:1 4704:2 4839:1 4978:1 5491:1 5508:1 5598:1 6024:1 6245:1 6280:1 6430:1 7034:1 7196:1 7346:1 7457:1 7499:1 7643:2 7742:1 
0.008087500087507467 0.001266580689410473 0.003601904386700576 242:1 449:1 504:1 524:2 1017:1 1036:2 1076:1 1145:1 1163:1 1188:3 1198:1 1217:2 1287:1 1469:1 1493:1 1715:1 1785:2 1888:1 2410:1 2470:1 2512:1 2612:1 2991:1 3092:1 3344:1 3354:1 3472:5 3523:1 3545:1 3547:1 3716:3 3720:2 3749:3 3762:1 3951:1 4047:1 4080:1 4164:3 4200:1 4240:1 4409:3 4430:1 4451:1 4508:7 4521:4 4524:1 4570:1 5178:2 5257:1 5272:1 5387:1 5901:1 6081:1 6430:4 6483:3 6817:4 6859:1 6915:1 6992:1 7004:1 7200:1 7225:2 7393:1 7518:1 7627:1 7640:2 7659:1 
0.06580180249124153 0 0 98:1 242:1 263:1 549:2 558:1 577:1 855:1 1036:1 1044:1 1145:1 1188:2 1287:1 1307:1 1453:1 1639:1 1847:1 2079:1 2353:1 2409:1 2433:1 2562:2 2649:1 2709:2 2796:1 2869:1 3602:1 3716:2 3795:3 4164:1 4405:1 4430:2 4513:1 4521:1 4853:1 4917:1 4978:1 5111:1 5160:1 5203:1 5482:1 5845:1 5895:1 6150:2 6430:1 6840:1 6873:1 7009:1 7347:1 7738:1 
0.0005245174249099634 0.01828953337959541 0.002552934401582901 212:2 283:2 549:2 613:2 790:1 1036:1 1042:2 1109:1 1145:1 1188:1 1244:1 1524:1 1674:1 1729:3 1785:1 1808:1 1870:1 1999:1 2079:1 2115:1 2146:1 2218:2 2709:1 3087:2 3279:2 3341:1 3421:1 3716:1 3727:1 3770:1 3919:1 3959:1 4240:1 4430:1 4521:1 4884:1 4947:1 5151:1 5296:1 5313:2 5353:3 5370:2 5791:3 5954:2 6027:1 6103:3 6281:1 6371:1 6399:1 6664:1 6840:1 7503:1 7550:1 7578:1 7607:4 7640:1 7712:1 
0.003178223193751604 0.00054024040014484 0 72:1 208:1 212:1 407:1 421:1 549:1 628:1 769:4 880:2 1036:3 1109:3 1145:2 1188:2 1287:1 1290:1 1345:1 1374:1 1543:1 1663:3 1680:2 1690:1 1890:2 1897:1 2023:1 2038:1 2070:2 2079:2 2328:1 2444:1 2764:1 2796:1 2832:1 2894:1 3075:1 3076:2 3174:1 3354:1 3513:2 3602:1 3662:1 3716:2 3762:2 3771:2 3890:1 3929:3 3951:1 3964:1 3989:1 4065:1 4164:2 4179:1 4200:1 4230:3 4366:5 4425:1 4430:1 4508:1 4513:1 4516:1 4666:1 4706:1 4790:1 4856:1 5075:1 5128:2 5242:1 5265:1 5313:2 5696:1 5847:1 5872:1 6024:1 6043:1 6340:1 6427:1 6483:3 6837:3 6944:3 7109:4 7640:1 
0 0.00951896918461651 0 91:2 93:1 212:1 401:1 449:1 594:1 597:1 867:1 919:1 1401:1 1672:1 2090:1 2640:1 2653:1 2700:1 2819:1 2888:1 3109:1 3472:1 3762:3 3908:1 3989:1 4473:1 4570:2 4766:1 5016:1 5044:1 5085:1 5787:1 6245:2 6338:1 6494:1 6756:1 7030:1 7148:1 7252:1 7550:1 
0.05378262232434033 0 0 242:2 299:1 504:2 558:2 692:1 867:1 991:1 1036:2 1145:1 1188:2 1353:1 1434:1 1480:1 1493:1 1761:1 1785:1 1890:1 1932:1 2038:1 2131:2 2146:2 2347:1 2410:1 2505:1 2533:1 2543:1 2566:1 2613:1 2614:1 2836:1 3074:1 3167:1 3548:3 3578:1 3716:2 3762:2 3771:2 4164:1 4230:1 4430:1 4521:1 4524:2 4997:2 5049:2 5138:1 5636:1 5895:2 6160:1 6371:1 6430:1 6483:1 6534:1 6788:1 6837:1 7203:1 7252:1 7625:3 7628:1 
0.004969312262477329 0 0.003141412991465938 196:1 197:1 211:2 311:1 375:1 549:1 563:2 628:2 692:5 738:2 842:1 867:1 910:1 1021:1 1042:1 1163:1 1177:1 1188:3 1424:1 1434:2 1469:2 1545:1 1693:1 1743:1 1841:2 1873:1 1890:1 1910:2 1988:1 1990:1 2076:1 2131:1 2146:3 2462:1 2512:2 2546:1 2566:3 2574:1 2614:1 2683:1 2906:1 3016:3 3087:2 3140:2 3211:1 3421:1 3562:1 3578:1 3638:1 3662:1 3716:2 3762:5 3771:4 4012:1 4200:1 4214:3 4302:2 4374:1 4430:1 4431:1 4513:1 4518:4 4523:1 4631:1 4917:2 5016:1 5045:1 5129:1 5250:2 5357:2 5421:1 5465:1 5570:3 5571:2 5601:1 5636:1 5692:1 5800:1 5804:1 5814:1 5834:1 5895:1 5943:1 5947:1 6018:1 6051:1 6118:1 6150:1 6158:1 6228:1 6265:1 6339:1 6430:1 6502:2 6523:2 6534:1 6618:4 6634:1 6639:1 6664:2 6679:1 6782:1 6859:2 6883:1 7003:1 7367:1 7473:1 7518:4 7568:1 7628:1 7640:1 7705:4 
0.001477896564428489 0 0 127:1 170:1 192:1 196:10 212:3 242:1 284:1 311:1 324:1 346:1 405:1 407:1 426:1 445:1 450:1 462:1 493:1 504:2 524:2 645:2 660:1 669:1 772:1 857:3 867:1 888:1 898:1 908:1 973:1 1009:1 1017:1 1032:1 1036:2 1090:1 1145:3 1188:4 1283:1 1374:1 1395:1 1424:1 1425:1 1434:1 1479:1 1558:3 1583:1 1590:1 1672:2 1680:1 1690:4 1743:1 1777:1 1847:2 1870:1 1890:2 1924:3 1927:1 1932:1 1959:4 2035:10 2079:4 2131:2 2164:2 2192:3 2225:1 2227:9 2257:1 2311:7 2328:2 2409:1 2416:1 2499:1 2512:2 2566:1 2574:1 2576:1 2596:1 2613:1 2697:2 2700:1 2709:3 2731:1 2753:1 2796:3 2888:2 2893:1 3092:1 3236:1 3279:1 3321:3 3323:1 3420:1 3473:1 3564:2 3715:1 3716:2 3727:1 3757:1 3781:1 3847:1 3959:1 3967:1 3983:2 4164:9 4181:1 4200:1 4217:1 4240:5 4253:1 4255:1 4302:1 4322:1 4365:1 4366:6 4430:2 4459:1 4524:1 4535:4 4558:1 4586:1 4627:1 4703:1 4763:1 4829:1 4831:1 4839:1 4849:1 4853:1 4881:1 4947:2 4972:1 4977:1 5004:1 5085:1 5092:2 5109:7 5129:1 5160:1 5283:1 5295:1 5313:2 5363:1 5556:2 5636:1 5643:1 5759:1 5804:1 5847:2 5935:1 5941:3 5996:1 6013:1 6016:1 6024:1 6111:3 6245:1 6271:1 6420:1 6430:2 6432:1 6534:3 6555:2 6585:1 6680:2 6706:1 6714:1 6770:1 6840:1 6851:1 6865:1 6909:1 6927:1 6944:1 6967:1 6968:1 7015:1 7040:1 7060:1 7104:2 7148:4 7166:1 7193:1 7219:1 7263:4 7424:1 7548:1 7597:1 7616:12 7624:1 7628:1 7640:2 7717:1 7753:1 7763:1 
0 0 0.0006423688983197649 7:1 80:3 137:1 186:1 231:2 236:1 263:1 283:1 348:1 350:1 365:1 407:2 504:3 536:1 571:1 772:2 806:2 874:1 889:1 919:1 991:1 1036:1 1070:1 1141:2 1145:2 1188:2 1257:1 1292:1 1298:1 1353:2 1356:1 1411:1 1424:1 1535:1 1569:1 1581:6 1680:5 1689:3 1690:4 1698:1 1743:2 1865:4 1984:1 1990:1 1992:1 2015:1 2079:2 2089:1 2114:1 2115:1 2172:1 2229:1 2317:1 2347:1 2451:1 2486:1 2495:1 2504:1 2512:2 2524:1 2541:1 2576:1 2709:1 2731:2 2783:2 2796:5 2798:1 2805:1 2839:1 2876:1 2888:4 2893:1 2941:1 2991:2 3039:1 3087:4 3369:1 3373:1 3454:1 3716:1 3725:1 3762:2 3771:1 3867:1 3890:1 3915:1 3929:5 3930:1 4003:1 4085:1 4106:1 4164:2 4200:2 4227:1 4230:1 4240:2 4246:1 4321:1 4430:2 4446:3 4449:1 4513:1 4524:1 4527:1 4653:2 4666:1 4782:3 4845:1 4852:1 4890:1 4917:1 4926:1 5053:1 5067:1 5109:1 5111:1 5129:2 5160:1 5267:1 5313:1 5493:1 5495:1 5534:5 5673:1 5776:1 5845:1 5888:1 5935:1 5941:4 5943:1 5954:1 6001:1 6005:1 6069:2 6109:1 6123:2 6259:2 6430:1 6517:1 6526:2 6582:1 6590:2 6653:1 6676:1 6680:1 6826:1 6837:4 6873:1 6880:1 7003:1 7071:1 7109:1 7151:2 7174:1 7352:1 7473:1 7484:1 7487:1 7518:1 7520:1 7550:1 7569:1 7575:1 7628:1 
0.005651674070241443 0 0 152:1 212:2 231:8 300:2 305:1 349:1 475:1 593:1 599:1 700:2 738:3 769:2 774:1 786:1 892:1 919:1 1017:1 1067:2 1109:6 1131:2 1145:5 1163:1 1188:3 1345:1 1357:1 1379:1 1434:3 1545:1 1581:2 1680:7 1690:1 1737:1 1759:1 1761:1 1814:5 1847:1 1890:3 2074:4 2079:2 2114:1 2115:2 2146:4 2164:4 2193:1 2212:1 2348:1 2409:1 2468:1 2483:2 2484:1 2534:1 2541:1 2566:1 2635:1 2683:1 2700:1 2709:2 2750:3 2796:1 2888:1 2891:1 2980:1 2991:1 3076:1 3319:1 3354:1 3421:2 3472:1 3537:1 3552:1 3659:1 3716:2 3751:1 3762:4 3890:1 4154:5 4164:5 4195:2 4230:1 4240:1 4300:2 4302:6 4430:1 4447:1 4483:2 4518:1 4524:1 4564:1 4570:1 4573:1 4607:1 4716:7 4888:2 5004:2 5016:2 5053:6 5092:1 5107:1 5129:1 5182:1 5190:1 5202:1 5268:1 5313:2 5385:1 5534:1 5646:1 5704:3 5771:2 5804:1 5811:1 5921:1 6024:1 6164:1 6331:1 6366:1 6430:6 6494:2 6500:1 6539:1 6555:1 6653:2 6664:1 6679:1 6680:2 6683:1 6699:5 6837:1 6840:1 6865:1 6873:6 6884:2 6892:2 6934:1 6967:1 6968:1 6972:3 7003:1 7090:1 7148:1 7160:1 7174:1 7211:2 7239:1 7256:1 7499:2 7518:1 7572:1 7628:1 7640:1 7645:1 7685:1 7693:1 7701:1 7768:1 
0.01685130475450029 0.002568490394949274 0.007697056356246295 110:3 1110:2 1616:1 2069:1 3724:1 3762:2 3771:2 3959:1 4255:1 4683:1 5776:1 6440:1 6680:1 
0.007981811634523481 0 0 558:1 1036:1 1109:1 1145:1 1188:3 1469:1 1493:1 1888:1 2251:1 2328:1 2530:1 2823:1 2980:1 3109:1 3421:1 3716:2 4164:1 4430:2 4524:2 5109:1 5174:3 5272:1 5313:1 5776:1 5935:1 6699:1 6817:3 6859:1 6968:1 7640:1 
0 0 0.05470623294128375 87:1 2980:1 3762:1 3771:1 5795:1 6081:1 
0.1144084583748515 0 0 1036:1 1145:1 1188:1 1846:1 3716:1 4430:1 4513:1 4543:1 5696:1 5833:1 5885:1 6840:1 
0.0189001600669498 0 0 73:1 166:1 318:1 331:4 706:1 723:2 864:1 972:1 1036:3 1042:1 1067:1 1109:2 1145:3 1163:1 1188:4 1357:1 1434:1 1469:2 1531:1 1618:1 1690:1 1785:1 1931:1 2023:1 2164:1 2348:1 2397:1 2446:1 2513:1 2581:1 2709:1 2783:1 2987:1 3033:1 3079:1 3301:1 3537:1 3716:2 3762:1 3771:2 3827:2 3889:1 4164:1 4430:1 4440:1 4483:1 4518:1 4521:2 4554:5 4564:3 4683:1 4841:1 4909:1 4978:2 5050:1 5077:1 5109:1 5213:1 5273:1 5326:1 5387:1 5449:1 5508:1 5691:1 5697:1 5740:1 5812:1 5941:1 5952:1 5963:1 5965:1 6071:1 6162:1 6215:4 6280:1 6713:1 6837:1 6840:1 6865:1 6944:1 6968:1 7109:1 7193:1 7713:1 
0 0.0004770331987599614 0 13:1 56:1 60:2 107:1 175:26 208:2 283:1 284:1 325:1 362:21 365:2 539:3 626:1 628:9 652:1 695:1 723:2 736:1 771:1 864:4 867:1 874:2 898:1 908:1 919:2 1017:3 1032:1 1036:7 1081:1 1109:5 1145:3 1163:1 1165:1 1188:14 1217:1 1254:1 1305:1 1307:2 1323:3 1353:1 1514:1 1524:4 1530:1 1544:2 1558:3 1581:1 1583:2 1680:2 1690:4 1691:1 1776:5 1814:1 1925:1 1934:3 2054:3 2071:1 2074:10 2079:9 2109:1 2142:2 2145:1 2146:2 2164:18 2209:1 2251:1 2271:1 2328:12 2359:1 2395:2 2414:1 2417:4 2444:10 2446:2 2462:1 2476:1 2478:6 2484:2 2550:2 2596:5 2612:2 2616:1 2624:1 2709:3 2710:1 2731:1 2783:1 2796:1 2824:2 2888:2 2896:2 3076:1 3087:1 3115:2 3119:5 3153:1 3228:2 3299:1 3302:1 3360:2 3421:1 3424:3 3466:2 3473:7 3474:18 3513:1 3514:2 3531:1 3537:1 3599:1 3716:12 3755:2 3762:4 3768:1 3771:2 3778:2 3782:1 3818:2 3822:2 3827:1 3848:1 3887:1 3916:1 3945:3 3979:1 4006:1 4077:2 4164:2 4179:10 4187:1 4195:1 4208:1 4261:4 4284:4 4302:6 4312:1 4405:3 4430:11 4431:1 4484:2 4495:1 4510:1 4513:2 4521:1 4524:1 4528:1 4564:11 4707:2 4749:1 4764:1 4782:7 4842:1 4849:1 4853:3 4904:3 4915:2 4917:5 4961:1 4971:1 4972:1 5006:1 5016:1 5053:3 5085:1 5109:1 5120:1 5129:1 5160:4 5315:2 5346:2 5387:1 5461:1 5636:5 5660:1 5767:2 5806:1 5811:1 5862:1 5895:1 5941:2 5954:2 6005:1 6009:1 6086:2 6103:1 6109:1 6150:1 6164:2 6206:1 6212:1 6223:3 6236:15 6246:1 6340:1 6430:13 6481:1 6555:3 6591:1 6777:1 6786:2 6793:1 6819:1 6840:1 6859:1 6871:1 6873:5 6884:1 6887:2 6897:1 6905:1 6934:1 6944:1 6953:1 6992:1 7225:1 7273:8 7305:2 7346:1 7438:1 7487:1 7515:1 7516:1 7542:1 7607:1 7640:2 7694:5 7703:1 7719:2 7753:4 
0.01990144415449545 0 0 430:1 2709:1 3271:1 3762:2 3771:2 4430:1 4507:1 4564:1 4749:1 5265:1 7003:1 7237:1 
0 0 0.0008287875412762583 290:1 543:1 628:1 919:1 1167:1 1188:1 1888:1 2240:1 2530:1 2684:1 3421:1 3718:1 3762:1 4065:1 4085:1 4164:1 4240:1 4434:1 4888:1 5111:1 5625:1 5776:1 6350:1 6523:1 6735:1 6770:1 6817:2 6929:1 7283:1 7499:1 7550:2 
0.01858475512296819 0 0 65:1 152:1 198:1 203:1 311:1 504:1 549:1 741:1 868:1 907:1 919:1 1188:1 1353:2 1493:1 2079:1 2193:1 2347:1 2576:1 2805:1 2823:1 2876:1 3683:1 3716:2 4164:1 4524:2 4570:1 5103:1 5224:1 5818:1 5895:1 6083:1 6103:1 6430:3 6514:1 6534:1 6623:1 6653:1 6837:1 6934:1 7001:1 7239:2 7628:1 7640:1 
0 0.001741150998165343 0 1:1 54:1 56:2 72:7 102:1 109:1 152:1 173:1 194:1 208:1 212:5 231:9 263:1 284:1 311:1 313:1 337:1 370:1 448:1 465:1 524:1 549:1 558:1 668:2 692:1 706:1 720:3 752:1 771:1 867:3 874:2 886:1 889:2 930:1 942:1 950:1 959:2 1017:1 1032:1 1036:3 1041:1 1080:1 1109:2 1141:1 1145:12 1188:8 1244:1 1353:3 1374:1 1395:1 1434:16 1437:2 1479:1 1521:2 1545:1 1548:2 1581:2 1586:1 1622:1 1650:1 1651:1 1680:5 1690:9 1735:1 1785:1 1803:1 1847:1 1850:7 1870:1 1873:1 1890:6 1891:1 1897:2 1914:1 2016:1 2038:1 2076:3 2079:2 2115:2 2138:1 2143:1 2146:1 2164:2 2170:1 2172:1 2237:3 2310:6 2311:1 2319:2 2349:1 2354:1 2374:1 2403:3 2451:1 2462:1 2514:1 2547:1 2566:1 2597:1 2640:2 2764:2 2803:4 2888:2 2891:1 2902:1 2905:1 2949:1 2958:1 2962:2 2979:1 3070:1 3076:1 3116:1 3217:4 3254:1 3264:1 3267:1 3279:1 3284:1 3301:1 3365:1 3513:1 3526:1 3543:1 3544:1 3571:2 3662:1 3716:7 3724:1 3762:13 3771:5 3773:6 3890:2 3929:3 3957:1 3959:2 3964:1 3978:2 4006:2 4061:1 4099:1 4124:4 4150:1 4164:6 4172:1 4179:1 4230:6 4251:1 4255:3 4261:2 4279:2 4430:8 4431:1 4442:1 4468:1 4483:1 4495:1 4521:3 4524:1 4553:1 4565:4 4575:1 4578:1 4596:1 4620:1 4703:1 4717:2 4782:4 4829:2 4859:1 4863:1 4872:1 4880:7 4884:1 4910:1 4923:1 4926:2 4947:1 4965:2 4972:1 5004:2 5020:1 5053:5 5085:1 5092:1 5109:2 5129:1 5182:1 5202:1 5246:2 5268:2 5313:2 5353:1 5435:1 5449:2 5553:2 5625:1 5626:2 5676:2 5696:1 5810:1 5812:4 5872:1 5881:1 5885:1 5895:1 6043:1 6048:1 6064:1 6086:3 6103:9 6150:1 6167:1 6170:1 6276:1 6371:2 6385:2 6430:5 6483:2 6494:1 6534:3 6561:2 6570:1 6679:1 6680:2 6736:1 6770:1 6786:1 6830:1 6837:9 6840:1 6844:2 6847:2 6859:2 6869:3 6871:1 6873:1 6925:1 6944:1 6945:1 6947:1 6948:1 7031:1 7083:1 7110:1 7148:1 7200:1 7202:1 7211:5 7212:1 7225:2 7250:1 7252:1 7256:7 7285:1 7325:2 7448:1 7490:1 7542:2 7550:3 7624:1 7640:2 7664:1 7713:1 
0 0 0.01118124591610847 50:1 198:1 212:1 252:1 457:1 504:1 520:1 549:1 889:1 1030:1 1036:1 1092:1 1100:1 1108:1 1161:1 1188:2 1212:1 1425:1 1690:2 1766:1 1890:1 2079:1 2185:3 2369:1 2488:1 2538:1 2620:1 2664:1 2825:3 2888:1 3103:1 3140:1 3301:1 3354:1 3425:1 3634:1 3716:2 3762:3 3771:2 3893:1 3953:1 4007:1 4064:1 4121:1 4131:1 4184:1 4227:1 4240:1 4431:1 4510:1 4570:1 4574:1 4817:1 4958:1 5085:1 5198:1 5315:1 5353:1 5449:1 5636:1 5792:1 5818:1 5850:1 5852:1 6014:1 6083:1 6086:1 6288:1 6430:2 6639:2 6837:1 7211:1 7328:1 7731:1 7735:1 
0.007051154747558431 0 0 107:1 176:1 212:1 486:1 536:1 549:1 613:2 692:1 695:5 771:1 782:4 804:2 991:1 1036:1 1058:1 1109:3 1110:1 1145:3 1188:4 1246:1 1345:1 1434:1 1545:1 1554:1 1581:1 1606:8 1608:1 1631:1 1680:6 1690:3 1718:1 1761:8 1827:1 2007:4 2050:1 2079:1 2143:1 2192:1 2351:1 2379:1 2395:9 2451:2 2454:3 2547:7 2596:7 2611:1 2709:2 2796:1 2876:1 2888:1 2958:2 3047:9 3076:1 3228:1 3229:4 3239:1 3421:1 3473:1 3526:1 3632:9 3716:2 3762:3 3771:2 3782:1 3801:1 3864:1 3959:1 3964:1 4159:4 4188:4 4208:5 4217:1 4230:3 4240:1 4255:1 4261:5 4284:7 4336:2 4341:2 4430:2 4513:1 4749:1 4782:1 4853:1 4917:1 5092:1 5107:1 5151:1 5177:1 5430:1 5508:1 5535:1 5663:1 5696:1 5776:1 5804:1 5812:4 5872:1 5896:1 5954:4 5965:1 6027:1 6076:2 6281:1 6364:1 6378:2 6399:1 6453:2 6478:1 6510:1 6545:1 6664:1 6699:1 6837:2 6873:3 6905:2 6940:1 7001:2 7039:2 7359:1 7402:2 7578:7 7640:1 
0.007333299470768358 0 0 198:1 208:1 242:1 437:2 599:1 784:1 1013:1 1036:1 1145:3 1164:3 1188:2 1394:3 1395:1 1443:4 1449:2 1489:1 1517:1 1734:5 1761:1 2079:1 2164:1 2522:1 2566:1 2638:1 2709:1 2783:1 2815:2 2891:1 3130:1 3197:1 3228:1 3526:1 3650:1 3716:1 3762:5 3771:5 3844:1 4065:1 4082:1 4096:1 4164:2 4302:1 4430:1 4524:1 5092:1 5236:1 5500:1 5508:1 5660:1 5696:1 5697:1 5797:2 5845:1 6634:2 6683:1 6750:1 7148:1 7225:4 7404:4 7456:1 7534:1 7640:1 7645:1 7659:1 
0.010136689502106 0.0165383329608419 0.002520589920766421 242:1 407:5 661:1 706:1 774:1 868:1 889:1 942:1 1036:1 1145:1 1188:1 1294:9 1299:1 1345:1 1368:1 1545:1 1680:3 1704:1 1785:1 1932:1 2079:2 2347:1 2446:1 2477:1 2552:1 2622:2 2928:1 3314:1 3473:2 3487:1 3548:2 3716:1 4085:1 4230:4 4251:2 4322:1 4447:1 4839:10 5049:1 5085:3 5464:2 5804:3 5812:7 5941:1 6097:1 6399:1 6687:1 6770:4 6837:1 6840:1 6873:1 6884:1 6968:1 7256:1 7285:1 7347:1 7380:1 7518:2 7550:3 7597:5 7607:1 7680:2 7694:1 
